3500 100
0 0.29970944 -0.2334729 0.14776482 -0.09493858 -0.09310549 -0.16329616 0.16949332 0.37205604 0.0055194544 0.2099923 0.48348117 -0.022421654 0.15710877 0.07970991 -0.012970648 -0.2571195 0.2525528 0.204164 0.103004836 -0.039282948 0.011966138 -0.0028936758 -0.045515064 -0.31258056 -0.13033232 -0.026973708 0.12023569 -0.07951524 0.04319035 0.18341172 -0.20224598 -0.24536565 0.0018950036 -0.047487963 0.026838247 -0.16007635 0.04217561 -0.18901919 -0.14319777 0.0022280593 -0.102490686 -0.0030872917 0.18092285 -0.017379547 0.16803463 -0.045672737 0.11228936 -0.1580773 -0.14501351 0.23612626 -0.09647767 -0.31215864 0.06152701 -0.27734125 -0.14534892 0.15300855 -0.026436841 0.055166386 -0.10192802 0.03625321 -0.05140676 0.07170682 -0.0782149 -0.07926071 0.10003671 0.04668744 -0.27228916 -0.07185509 0.071739726 -0.19102454 0.040651433 -0.09546761 0.03553291 -0.2334875 -0.06651247 -0.21119118 -0.0988317 -0.039776232 -0.2253746 0.24277993 -0.10344188 0.23176691 -0.033091616 -0.04313422 -0.057083193 -0.1313469 -0.19156875 -0.13351987 -0.19907305 -0.090673506 -0.021369237 -0.37904358 -0.033986907 -0.06712407 0.16888891 -0.05171437 -0.08156025 -0.03040473 -0.060343567 0.009054129
1 0.17695817 -0.012135997 -0.027719224 0.1117294 -0.09915987 0.17124176 -0.12904787 0.14741421 0.29225606 0.24698275 0.013876451 0.08505458 0.07779239 0.13413556 0.062290806 -0.2711277 0.08641044 -0.0011735457 -0.006891618 -0.18062998 -0.29265076 0.22317165 -0.08772455 -0.18173066 -0.1907826 -0.001619218 -0.007340779 0.13258895 0.0656006 -0.087639645 -0.20376365 -0.008897435 -0.07267231 0.008506236 0.20738038 -0.08257098 0.014998104 0.15231574 0.15020373 -0.113277934 -0.09709274 0.05657842 -0.015602519 -0.05779465 0.083493315 -0.15839627 -0.026920395 -0.06955375 -0.25029027 0.16219446 -0.010722532 -0.4489994 -0.305233 -0.24090737 -0.18746275 0.056038447 -0.028135289 -0.18082872 0.054877046 0.058249023 0.13530521 -0.05281826 -0.13515377 -0.22003934 0.23104623 0.103226885 -0.099953026 -0.120430276 -0.019094486 -0.1532606 0.18184997 0.15732785 0.019110616 -0.21503736 -0.12885149 -0.08110097 0.08872397 -0.29652417 0.17444623 -0.10429965 0.14712876 -0.031437203 0.044609375 0.042175706 0.06199365 0.13919404 -0.16848776 -0.025389764 0.029947435 -0.082747616 -0.21920389 -0.13475953 0.11079532 -0.07255272 0.06641363 -0.26156458 -0.01881325 -0.06715859 -0.013333817 -0.17568418
4 0.4222843 -0.2852034 0.06489586 -0.24635996 0.10006198 0.08845959 0.046772193 0.20252353 0.06190144 0.48943618 0.19612458 -0.13696043 0.20251013 -0.2625139 -0.26190543 -0.36440015 -0.14424631 0.30883065 -0.062805764 0.16590449 0.42239094 -0.09473871 -0.06310985 -0.16824524 0.05893686 -0.32047594 0.05427961 0.14250167 -0.086980835 0.1104735 -0.26570877 -0.2583929 0.1078195 -0.40435764 0.062317118 0.07323547 0.017143797 -0.42329782 0.15166767 0.022178976 0.048272245 -0.18278763 -0.19157243 0.050296012 0.096386276 0.1629421 0.09760625 0.06420177 -0.17550799 -0.009781043 -0.07379906 -0.52378464 -0.07803368 -0.2590106 -0.24232101 0.23021139 0.01654345 0.015006704 -0.20833571 0.09803643 0.3083191 0.20351626 -0.27481717 0.27296108 -0.050179534 0.22215113 0.27730513 0.17926285 -0.014992796 -0.027602583 0.065724246 -0.05586119 0.18398918 -0.427387 0.3037707 -0.03604067 0.06958479 0.11716846 -0.123457186 -0.031287376 -0.031979907 -0.044371538 0.12210992 -0.29066217 -0.05316304 -0.14452915 -0.06473227 0.07427034 -0.02240984 0.07115351 -0.040112823 -0.16526684 -0.061373692 -0.27262926 0.3134697 -0.07628278 -0.05036883 -0.017434658 0.12932795 -0.10096074
3 0.07245059 0.111528985 -0.21650456 0.2030073 -0.16244382 0.15536465 -0.15890788 -0.03427434 0.22283071 0.36277378 0.06642798 -0.05149006 0.0852744 0.07025226 0.099686176 -0.33453155 0.149699 -0.04789883 0.1542601 -0.048783995 -0.27127883 0.2272722 -0.033597443 -0.11194328 -0.34606993 0.046460323 -0.18365861 0.020505138 0.035590183 0.0379994 -0.020679632 -0.2252281 -0.100538306 -0.1168727 0.17302155 -0.26174077 -0.05927092 0.19655915 0.14502642 -0.15971097 -0.23709318 0.020661684 -0.0029978696 -0.2173358 0.20366699 -0.15120748 0.008973301 -0.13472092 -0.13140857 0.27664798 0.007396322 -0.34208202 -0.31898046 -0.3955631 -0.19178985 0.13759929 -0.06586147 -0.26952177 -0.113781326 0.06625897 0.041191943 -0.025985442 -0.025599906 -0.1889308 0.16662875 0.10291218 -0.03416682 -0.17586735 0.13031709 -0.18510176 0.037053272 0.29348484 0.088397086 -0.31669807 -0.09629556 -0.15276298 0.10222998 -0.25999865 0.23485576 -0.10576632 0.11158582 0.05932047 -0.14647862 0.08598874 0.12138003 0.047721937 -0.21343079 0.037324436 -0.07185928 -0.10706364 -0.03809166 -0.163218 0.02614516 0.07152935 -0.044191323 -0.22196952 -0.0061407667 -0.08618518 0.02617306 -0.18667246
2 0.48616552 0.07344803 0.2738129 0.011439625 0.08646041 -0.109982066 0.009663768 0.20791082 0.040966082 0.03966928 0.071498744 0.02478754 0.084746756 0.00041398237 -0.13303265 -0.27117726 0.0665515 0.35174504 -0.039486926 0.08626792 -0.048108865 0.083621256 0.36707842 -0.026310166 0.01409914 -0.1498807 0.2785116 -0.1621639 -0.08187095 0.028069887 -0.26132005 0.08991373 0.3009325 -0.20186602 -0.14233674 0.08089462 -0.10155297 -0.21880701 0.109113105 -0.12817377 -0.2700373 -0.19711785 -0.12970068 -0.2024013 0.22568077 -0.17032686 0.29306877 -0.13341719 -0.28460014 0.1973676 -0.24478862 -0.15937644 0.14407709 -0.20153502 -0.59871507 0.23354088 -0.24085256 0.053405937 0.05445442 0.14785612 0.14459951 0.118248224 -0.41474664 -0.16282605 0.2232322 0.17587166 -0.245742 0.036202364 0.029035924 0.07643451 0.057310633 -0.28642356 -0.0008120368 0.08834406 -0.05182486 -0.03898858 -0.079469934 -0.124535725 0.005428248 0.2913764 -0.07156926 0.11504723 0.08661358 0.03422791 -0.08594429 -0.2029293 -0.039054856 0.0003477305 -0.30097583 0.06797243 0.19003023 -0.2865592 -0.023913529 -0.027718043 -0.02067858 -0.035688553 -0.47353172 -0.09044011 0.34546638 -0.15269156
5 0.2685309 -0.21602471 0.44377232 0.06355256 0.001966908 -0.09712196 0.11885673 0.1991642 -0.117430024 0.15195075 0.45982635 -0.3375969 0.23557952 -0.27337807 -0.12351125 -0.30142632 0.19027457 0.33365354 0.26747647 0.018500507 0.027063945 0.033362888 0.0693325 -0.2934547 -0.19617383 -0.053532403 0.37226468 0.11930471 -0.15274513 0.09944831 -0.34536943 0.050403614 0.3166594 -0.40086693 -0.15325607 0.03188969 0.017913952 0.12892821 -0.0008476119 0.0715496 -0.18563227 -0.18592069 -0.087586865 -0.047596194 0.11703083 -0.19783056 0.45779058 -0.018634832 -0.07565556 0.2623938 0.12677094 -0.049648806 -0.08654973 -0.26307353 -0.4018665 0.29679012 0.15025541 -0.18751515 0.0910197 0.045169186 0.3201121 -0.13082045 -0.30303857 0.012456219 0.3316356 0.35637093 -0.11373779 -0.09175534 0.3722095 0.03338078 -0.066490635 -0.21569869 0.041956585 0.2222997 -0.045380928 -0.027441101 -0.290081 0.10436592 -0.053931277 0.44444746 -0.15136531 0.23245394 0.25077647 0.108580075 0.0057615754 -0.471994 -0.22504172 0.1525042 -0.13932382 -0.1716802 0.121913165 -0.178583 -0.072564796 -0.42057383 0.014694053 -0.17933694 -0.23242234 0.0824903 0.40962148 0.0088164
6 0.11082845 0.1799212 -0.068829134 0.26159602 -0.10309347 -0.2386454 -0.08888687 0.11291517 0.18092218 0.14666733 -0.1982495 0.32843548 0.31310278 -0.04245464 0.07421015 -0.23304604 0.43968034 -0.0015234658 0.17375831 -0.118614845 -0.22665918 0.30676004 -0.38829395 -0.06061194 -0.3682364 -0.1940146 0.28541946 0.35918158 0.033550635 0.13805172 -0.1672065 -0.039995167 -0.009083491 -0.2662545 0.2865819 -0.19826649 0.09002358 0.28494063 -0.02705145 -0.13606721 -0.39332446 0.055369917 0.027701128 -0.32193747 -0.10390824 -0.48320547 -0.065093495 -0.12180481 0.018225549 0.03626222 0.04747757 -0.46914038 -0.13011414 -0.35247168 -0.18434687 0.27442268 -0.16729 -0.43336198 -0.12674798 0.14789487 -0.29901972 0.032750953 -0.058311634 0.001024247 0.041261412 -0.03474484 -0.18531883 0.053888015 -0.2866494 0.17707182 0.097614095 0.0930704 -0.18605836 -0.04262345 -0.12170832 -0.30486283 0.13035987 -0.2560771 0.22478344 -0.013459553 -0.09744835 0.041346893 0.2294018 0.010061545 0.29153255 0.36959526 -0.06748434 -0.14285986 0.08810828 -0.06380626 -0.18065603 -0.13615395 0.20369998 0.10173025 0.068226166 -0.17749196 -0.10387187 -0.30794144 0.1036288 -0.22326843
9 0.14836709 -0.25986946 -0.08930515 -0.115986966 -0.25537726 -0.06187525 0.028676607 0.24233937 0.09948269 0.16980918 0.21322924 0.035602752 0.004233141 0.21306191 0.10065716 -0.18766895 0.09508447 0.09058132 -0.17496113 -0.13249758 -0.14158373 0.32463092 0.020181911 -0.23670758 -0.059062153 0.018437967 -0.1345873 -0.028931515 -0.05178622 -0.26643917 -0.15732642 0.039648414 0.012882033 -0.32456687 0.14040957 -0.12293961 -0.03492015 -0.15161361 -0.048167393 -0.01872352 -0.08450216 0.018346593 -0.056907393 -0.0767717 0.0598926 -0.3143394 0.101162456 -0.16402556 -0.058972042 0.21734726 0.08410305 -0.69691736 -0.19663689 -0.34591153 -0.16750486 0.101052605 -0.11108497 -0.018084638 0.052648522 0.03278108 -0.0429262 0.11543463 -0.17255169 -0.23423316 0.2734454 0.069455385 0.008029182 -0.22621885 0.102224246 -0.15667877 -0.1415106 -0.075354345 0.13943143 -0.16243456 -0.28945196 -0.15138501 0.024954023 -0.11353893 0.18276164 -0.046942152 -0.042793036 -0.12058334 0.014526002 -0.13596563 0.06208293 0.20942925 0.2625673 -0.07468902 0.045201812 0.037055288 -0.094661616 -0.25817746 -0.11315577 -0.16548696 0.16833386 -0.18217659 -0.21984546 -0.083435856 -0.08587991 -0.014659794
10 0.14750874 0.02105208 -0.005476229 0.05432891 -0.08029982 0.054550126 -0.25174958 0.0476001 0.3852527 0.08521707 0.12815543 0.15894227 -0.12227519 0.15721115 0.024376279 -0.047668535 0.022026433 0.08256995 -6.9158064e-05 -0.35163468 -0.14824934 0.24354112 -0.18798584 -0.13493325 -0.2530602 0.12098305 0.1094124 0.21675467 -0.14716068 -0.069161475 0.05420953 0.04471097 -0.14996706 -0.15794368 0.019341646 -0.03982932 -0.20127837 -0.14330012 0.06417902 -0.030120773 -0.1477913 -0.005983385 -0.032236934 -0.23987928 0.31068927 -0.0759813 0.12584694 0.12939112 0.1427209 0.050129257 -0.02541065 -0.3547926 -0.11549083 -0.3772436 -0.21600182 -0.15981726 -0.24087082 -0.38266578 -0.08502212 0.316424 0.14285745 -0.18126996 -0.17420521 -0.2287828 0.13618688 0.009890146 0.005085213 0.10975896 0.0981939 -0.45994893 0.07497228 0.118775085 0.10068123 -0.118089266 -0.0817834 -0.09750422 -0.10196488 -0.25413993 0.2503738 -0.010496346 0.40343088 0.04186579 0.057042025 0.10995382 0.09621445 0.0912691 -0.3799497 0.057686582 -0.33783376 0.030597355 -0.19356546 -0.2284 -0.079243995 0.14369884 0.14333773 -0.17618048 -0.056357436 -0.12456625 -0.026001265 0.2190479
7 0.25557223 0.058931526 0.22915938 0.03588562 -0.17068554 -0.017351972 0.002299601 -0.016837785 0.32826838 -0.036599148 0.006354956 -0.06735117 0.20534971 0.23500884 0.050093267 0.070559174 0.0707119 0.12075856 -0.1181661 -0.1330478 -0.23910785 0.45275295 0.08188754 -0.2812928 -0.01723927 0.055855986 0.07505023 0.10059777 -0.26412603 -0.22508582 0.039937902 -0.12080504 0.07001549 0.18244536 0.10806227 -0.14638992 -0.38429222 0.18800321 0.19108066 -0.12656404 -0.20381878 -0.15490165 0.06083569 -0.25828555 0.10707635 -0.22153103 -0.15179937 0.17962824 -0.15036152 0.19040732 -0.2764205 -0.33712423 -0.18208648 -0.17836386 -0.0730623 -0.03763174 -0.35130224 -0.08792985 0.088455215 0.2797046 -0.08578189 0.060369283 -0.120361574 -0.15408987 0.03916694 0.031624112 -0.041252207 0.06694591 0.24191809 -0.196753 0.14144883 0.42363116 -0.048383508 -0.12927783 -0.13218604 -0.3328705 0.06906327 -0.17307547 0.17925538 -0.040677648 0.3115503 0.026209531 0.10301133 0.19959803 -0.15329099 0.009745533 -0.32459146 -0.032457687 -0.10769826 0.10552613 -0.24307315 -0.66015965 0.005122819 0.16951455 -0.19382104 -0.31543982 -0.25861686 -0.059176896 0.048838068 0.29129815
8 0.1213698 -0.09408576 0.045078076 -0.08883243 -0.21409094 0.029148905 0.28082448 0.35306343 0.12763254 0.16158679 0.032826208 0.12921174 -0.12269354 0.012545018 0.0030381079 -0.1462058 -0.10856417 0.16763747 0.03685388 0.19836499 0.2884946 0.06987593 0.058350436 -0.39115047 -0.016233409 0.030207383 0.10250493 -0.06862248 -0.20216984 0.09591669 -0.04064759 -0.2551703 0.01049364 -0.37698132 -0.02453939 -0.21495269 -0.14209661 -0.20031679 0.14078148 -0.097379364 -0.14577992 -0.011449745 -0.17337033 -0.09017795 0.076268196 -0.15388945 0.21799085 -0.18940137 -0.29878366 -0.0927774 0.048745632 -0.41899887 0.12808433 -0.21056189 -0.16620187 0.25379702 -0.12614603 -0.10177654 -0.13277978 -0.13064565 -0.14783305 -0.034001704 -0.070933715 0.06363615 0.2564826 0.06675117 -0.067399435 0.058637958 0.0068412623 0.06936449 0.2611048 0.030224472 0.18678531 -0.14636403 0.18503098 -0.09473471 0.10057856 0.01982747 -0.14817248 0.05713235 0.08345526 0.23059128 0.3028872 0.017641958 -0.105356246 -0.09398325 -0.27828622 -0.23013209 -0.2576019 -0.21108414 0.15370552 -0.06744031 0.14832327 -0.110317126 0.22569129 -0.05699009 0.09492556 -0.03975149 0.020028856 -0.111279935
12 0.2453657 0.11993207 0.088422604 0.046451434 -0.13041109 -0.11392117 0.2327106 0.21227087 0.18661666 0.20220418 -0.13006274 0.098452605 0.18750975 -0.11381616 -0.032841273 -0.033962984 0.1439225 -0.11302436 0.044296253 -0.1991596 0.122828454 -0.013726278 -0.10088493 -0.011970939 -0.23690395 -0.0075264447 0.16193166 0.06662346 -0.14147316 -0.12859626 -0.0409969 0.13196597 -0.05004193 -0.05946668 0.088199064 -0.22057153 -0.09619175 -0.0076181428 0.10026545 -0.21154624 -0.116163716 -0.07830401 -0.13921082 0.0834939 -0.07492541 -0.033801932 0.22493953 -0.0492062 -0.46784723 -0.20115046 0.04151461 -0.487279 -0.22045861 -0.28535944 -0.074293345 0.09207922 -0.040853932 -0.15328103 0.1046935 -0.29411298 -0.022793392 -0.05260827 -0.09317546 0.1166989 0.07762477 0.21029773 -0.044482682 0.04470331 -0.039961092 -0.21415287 0.0019446245 0.16853881 0.19957392 -0.03995117 -0.027081281 0.07295286 0.06459621 -0.2530458 0.11490916 -0.09650716 -0.10056584 -0.100298025 0.12636532 0.07818502 0.04642319 0.06811635 0.05631949 -0.3379334 -0.2663326 -0.15200573 -0.1753832 -0.25997353 0.033555582 0.05777947 0.01900963 -0.24426922 -0.2382019 -0.35935593 -0.01948316 -0.20142908
13 0.47971418 0.060948033 0.30983305 0.42688382 0.09860263 -0.0182328 0.3717051 0.43965843 -0.2711096 0.2813022 0.668991 -0.038631346 0.26605615 -0.019026779 -0.08713074 0.21885994 -0.111841716 0.11152679 0.27970386 -0.13958971 0.080453224 -0.23489887 -0.016829457 -0.22505276 -0.01288557 0.0046052383 0.06324584 0.016802074 -0.10508322 -0.097718574 -0.16264127 -0.14789344 0.01570748 -0.13985191 -0.19738352 0.1847174 -0.23022567 -0.17017613 0.06776441 -0.065928936 -0.021444537 -0.23748532 -0.19681379 -0.29051632 0.26427293 -0.21925378 -0.02425143 -0.21702106 0.15544292 0.1219169 -0.0420447 -0.3109552 -0.43670025 -0.45568752 -0.5309479 0.23594287 -0.13457093 0.3385885 0.13523346 -0.1660518 0.4270289 0.32853156 -0.20374474 -0.23026466 0.026755426 0.032142553 -0.277091 -0.09888653 0.2659728 -0.004195235 0.080713026 -0.24915348 0.21743232 -0.028893022 0.14698443 0.02173577 -0.022232622 0.06356186 -0.26984972 -0.0029781314 -0.06428113 -0.11952827 -0.14663695 0.03669136 -0.13072962 -0.04246819 -0.09053609 -0.017620023 0.03158302 0.21480645 0.057243783 -0.030389333 -0.108742125 -0.5144525 0.64648 -0.040074576 -0.381089 -0.18926051 0.13579589 -0.50473225
14 -0.016759422 0.054487158 0.081422895 0.16585864 0.07177964 0.1384999 -0.08978447 0.054502726 0.39752164 0.6092754 0.04649103 -0.15194535 0.15208884 0.07056282 0.20670669 -0.30051807 -0.09636821 0.01156457 -0.052933715 -0.25744691 -0.1661822 0.3660258 -0.1539436 -0.15210932 -0.26634446 -0.10484578 -0.05796607 0.21086596 0.123878814 -0.04782035 -0.25333723 -0.02082583 0.070341654 0.045141216 0.123534486 -0.17146748 -0.2010912 0.032626078 0.06463045 -0.11353874 -0.08565198 -0.065066636 0.35307267 -0.20181018 0.37019235 -0.43549442 -0.0090450095 0.056804173 0.09757326 0.050576136 0.06886786 -0.24228862 -0.12527779 -0.15613711 -0.19822979 -0.100033924 -0.09848829 -0.32768857 -0.068781614 0.19344273 0.07061943 -0.14416651 -0.076975055 -0.23739152 -0.0143388705 0.16826443 -0.101700164 -0.2255092 -0.14002146 -0.11486427 0.092736125 0.17367335 0.17196853 -0.1129609 0.011047989 -0.16529046 0.32637125 -0.103775434 0.1097977 0.1069727 0.045742888 0.038375936 -0.024081532 -0.07829861 0.18858299 -0.13513124 -0.12616777 -0.08789136 -0.2046736 0.12370107 -0.106906645 -0.14484254 0.05028831 -0.08890872 -0.18547972 -0.33589444 -0.1243866 -0.46775308 0.15003623 0.05726392
16 0.38970545 -0.121552125 0.51114255 -0.05421652 0.10333221 -0.1293503 0.06874975 0.24528281 0.037099853 -0.06025526 -0.16533042 0.28849557 0.20877896 -0.0281228 -0.29791135 0.00928465 0.21330902 0.16058305 0.3748517 -0.41944063 -0.16709216 0.23002163 0.23671986 -0.22013201 -0.18460771 0.16031739 0.4534703 0.12974383 -0.32101762 -0.11806945 -0.09478544 0.058816355 0.10619082 -0.026272045 -0.056600444 -0.132847 -0.123525 -0.22814097 -0.25413534 -0.04629379 -0.1479523 0.24458529 0.1810513 -0.23084088 0.3447753 -0.3152401 0.32512233 -0.25638688 -0.04746546 0.4994587 0.113559075 -0.41708815 -0.32846838 -0.37038675 -0.3071242 -0.4773574 0.101858966 0.015653418 0.021427909 -0.09084852 0.41055432 0.14599478 -0.43585405 -0.13767628 0.06529627 -0.38701507 -0.33671948 -0.016295847 -0.0011035843 -0.070587195 -0.08849072 0.20469919 0.23592669 0.16175985 0.0976269 -0.12982592 0.2087867 -0.1917722 0.08851068 0.12848249 -0.34804878 -0.14956175 0.13909866 -0.054978844 -0.44111705 -0.098310806 0.24437365 -0.22434862 -0.16682914 -0.014314165 -0.13590519 -0.51468235 0.09189821 -0.078325815 0.27615803 -0.024084127 0.12352647 -0.110270076 -0.1374004 -0.30424455
15 0.453405 0.031001687 0.4211054 0.21637706 -0.25227258 -0.21013875 0.10977528 0.3557552 0.21163598 0.067917876 0.114494376 0.3547329 0.066139 -0.014850881 0.17361331 0.21506682 -0.17115082 0.21083754 0.1267094 0.1842583 0.08248268 -0.02305161 0.2604862 -0.23350728 0.15011114 0.079440236 0.60763943 -0.07068402 -0.1895333 0.43467915 -0.085109584 -0.021301322 0.30333617 -0.31036636 -0.2402063 0.16014235 0.058289044 -0.31574926 -0.03150473 -0.09136027 -0.093558006 -0.12939884 -0.27128783 0.23676136 0.1207954 -0.39292297 0.1920917 -0.3235502 -0.19379817 0.30015856 0.008359277 -0.23484702 0.008501567 -0.34894767 -0.4065191 0.061928988 -0.018349431 0.060071357 0.20024139 -0.15287481 0.3236919 0.011464883 -0.4464489 -0.38029754 0.18851386 0.1264773 -0.002220425 -0.12783185 0.17820007 0.00060736237 0.21008964 -0.29216027 0.28950867 0.067210756 -0.045779616 -0.16556843 -0.14971532 -0.05105763 0.041721255 0.24623255 -0.16921481 0.31032467 0.22178118 -0.06145861 -0.1874276 0.00056446134 0.006631697 0.07953532 -0.36009505 -0.21798532 0.05166543 0.018451849 0.11751871 -0.3013412 0.29083318 -0.035011493 -0.2170618 -0.09588781 0.33435556 -0.3258732
11 0.27244353 -0.21337423 0.20459643 -0.11856357 0.053372428 -0.272853 0.052009698 0.17630817 -0.13154453 0.439381 0.46435633 -0.30768114 0.1308203 -0.01225615 0.20219502 -0.24230309 0.09717245 -0.02976963 0.053054757 0.110352546 0.13679957 0.18690374 0.34750867 -0.43294558 -0.22427383 -0.11960237 0.08152316 -0.016026394 0.18177792 0.10026775 -0.11295282 -0.14149953 -0.1295498 -0.3137609 0.27588406 -0.04406629 0.20916882 -0.44367257 -0.08545412 -0.043924488 0.21564777 -0.05158266 -0.34364775 -0.10984778 0.010538196 -0.24298353 0.113338165 0.15123765 -0.0025027515 0.61671174 -0.09813428 -0.42495292 -0.16298696 -0.023684967 -0.47038326 0.05181666 0.15481554 -0.08559655 0.24085937 -0.119193204 -0.11911174 0.18176374 -0.20540491 0.048631776 0.017852899 -0.0037443396 -0.03219116 -0.04707276 0.02198927 -0.17204475 -0.12991142 -0.1304169 0.459799 -0.09311224 0.12099994 -0.30002832 -0.0380671 0.029134713 -0.1412594 0.262222 -0.4943356 0.22990589 0.5086636 -0.30598193 0.1429431 0.05297979 -0.48516712 -0.16406523 -0.1990448 0.028064396 0.2723552 -0.2887223 0.24453118 -0.22003166 -0.005693703 0.041000623 0.06302344 0.26994282 0.24269533 0.08828359
20 0.21144453 0.03153006 -0.19865453 0.023810772 0.038508013 0.5251755 0.36092067 -0.06109901 0.015939176 0.32170525 0.05133107 -0.20520501 -0.0010385108 -0.031244362 0.10079908 0.14989717 0.16206965 -0.03149373 0.09256412 0.10698131 -0.10767687 0.42462716 -0.4045431 0.14892128 -0.46042696 -0.1323527 -0.091613695 0.0019251409 -0.115987614 0.23060586 0.32882255 0.2838311 -0.10840578 -0.34264302 0.2474565 -0.28647512 -0.06322578 0.12840874 -0.08540103 -0.06157751 -0.22882645 -0.080339186 0.29025578 -0.09306739 -0.02476616 -0.06641295 0.102120645 -0.05724368 -0.45368105 0.40765697 0.04072665 -0.32059023 -0.5402965 -0.29724118 -0.14353675 0.18736732 -0.29458925 0.17131762 -0.0642508 -0.049105622 0.2174457 0.044255383 -0.30600086 0.04962528 0.44264933 0.21937019 0.029593075 -0.04526063 0.026095223 -0.13137934 0.30622214 0.33435243 -0.032512464 -0.36302575 -0.078744955 -0.24460828 0.15417182 -0.32009104 -0.053945005 -0.020966843 -0.14764434 -0.13312985 -0.025372943 -0.043864083 0.30869633 0.020792568 -0.040331926 -0.14734975 -0.17551036 0.099267215 0.24287038 -0.14064072 -0.07060607 -0.16342938 -0.04344058 0.11064032 0.060103115 -0.08826044 0.33056936 -0.37084427
17 0.3127186 0.07195678 0.4974489 0.14773892 -0.09411863 0.2167581 0.0749916 0.5774354 -0.023630014 -0.07767477 -0.033882596 0.069826 0.26267108 0.114866614 -0.045779437 -0.037388716 0.1671223 0.3045418 -0.32868987 -0.13371745 0.34713128 -0.111808635 0.5282105 -0.27860948 -0.083787255 0.014009633 0.15083109 -0.0755644 -0.07330666 0.26689908 -0.23327644 0.14108115 0.19010356 0.17647167 -0.11381242 -0.34799093 0.08928215 -0.30053875 -0.057584904 -0.07293405 -0.10270395 -0.099863715 0.05975248 0.07848316 0.11389397 -0.4394168 0.24484056 -0.016951242 -0.3026616 0.31811738 -0.18646808 -0.48747024 -0.07330712 -0.30225474 -0.50623053 0.22981404 0.2762708 -0.044716813 -0.1324754 -0.0125608975 0.12861441 0.16499719 -0.38212866 -0.25121722 -0.04905314 -0.28113788 -0.34003845 -0.109311044 0.20527145 0.272667 0.10199071 -0.053219236 0.25959596 -0.02492707 -0.48366842 -0.16695242 -0.0096737845 0.07735683 0.12968218 0.015528836 -0.2519099 0.12313064 0.6169462 0.11414254 -0.078878805 0.12072317 0.15918499 -0.1377001 -0.36494306 0.08272196 -0.0040428746 -0.5039196 0.022182755 -0.36955577 0.21193203 -0.14023387 0.025596673 0.022400016 0.34262812 -0.1236427
19 0.2517942 0.24977593 -0.061030544 0.28802544 -0.028388062 0.32127374 -0.12021907 0.03155151 0.18817139 0.35982662 -0.14178859 0.101662405 0.15123251 -0.04824383 -0.09354708 -0.32280776 -0.0689329 0.16094817 0.111832105 -0.062595256 -0.19284122 0.12213798 0.17375731 -0.13712202 -0.4228924 0.13427222 0.04327016 0.2602422 -0.07442062 0.034423593 -0.15239419 -0.2239699 -0.19087982 0.04866889 0.2965008 0.012525691 -0.09209859 0.19305892 0.35110086 -0.18891507 0.024576755 0.13814513 -0.0005661192 -0.20672141 -0.00015612328 -0.1589167 -0.17011394 0.12754671 -0.3202357 0.33095485 0.2905389 -0.5194694 -0.22575444 0.13456808 -0.4878681 0.23126304 -0.21161687 -0.2452728 0.12509249 -0.0077412277 -0.100658104 -0.13541625 -0.29690665 -0.39663398 0.06610654 0.20977518 -0.18494298 -0.5174562 0.108112246 0.026827132 0.30624458 0.18771017 -0.17993137 -0.006415209 -0.24257644 -0.029907817 -0.21186164 -0.42667064 0.07466851 -0.15973055 -0.13012818 0.24299157 -0.13842614 0.21470472 0.33870277 0.10988556 -0.21169251 0.043879043 -0.029280452 -0.254683 0.017485864 -0.11043627 0.027441436 0.015234197 0.07135842 0.05932396 0.04893553 -0.12232759 0.06611508 -0.23069116
18 0.2538984 -0.11194649 0.23080093 0.005835814 -0.10674228 0.10930685 0.18370974 0.2054244 0.21885906 0.32541353 -0.11014753 -0.061347224 -0.085023314 0.07180881 -0.08287325 0.11205788 0.30163956 0.21045807 -0.0028011508 -0.34121844 0.250671 0.17923413 -0.17699246 0.13003385 -0.03197575 -0.23236412 0.06307322 -0.14670326 -0.08779247 -0.100384064 0.020208279 -0.07582396 -0.29414856 0.009739879 0.030137962 -0.14001903 -0.13512485 -0.29255724 0.0936766 -0.1252593 -0.2772972 0.02397926 -0.21336155 -0.18716182 0.1848182 0.15008564 -0.19079524 -0.02212771 -0.37462127 0.15178137 0.041057676 -0.504069 0.060807806 -0.26826584 0.020879677 -0.35088658 -0.046055775 -0.26568425 -0.118524715 0.04161122 0.08557464 0.31559408 -0.44419655 -0.34523207 0.17530796 0.07254173 -0.18038748 -0.1364193 0.419292 -0.12847115 -0.24441648 -0.0029156024 0.07140462 0.06243636 0.1961823 -0.032857373 0.078635484 0.20065472 0.026589112 0.14482805 0.2589029 -0.2901767 0.15613672 -0.24798633 0.08511307 0.11912661 0.10797877 -0.085761115 -0.089965865 0.005219803 0.13297187 -0.04542066 -0.100497454 -0.1099319 -0.02612617 -0.4484447 -0.025831765 -0.0005726437 0.19944705 0.12891997
21 0.034500528 0.1476555 -0.39487663 0.28391632 -0.26950255 -0.1537236 -0.21797706 -0.16613835 0.25846547 0.19893277 -0.07757587 0.3085505 0.08441054 0.21132718 0.33989254 0.013800531 0.23512512 0.2003611 0.040619884 -0.12507026 -0.17739412 0.55387765 -0.016092164 -0.2940222 -0.37593418 0.06568039 -0.11968101 0.3521107 -0.010599354 -0.19262731 -0.27129394 -0.25654602 -0.31481668 0.18368727 -0.27849737 -0.1202681 0.029440824 0.16496663 -0.14431836 0.017249618 -0.048318576 0.036426324 0.01745338 -0.050974987 0.11807881 -0.16300826 0.22189641 -0.050999437 -0.09652543 0.019789705 -0.027647154 -0.19932917 -0.31456822 -0.44723755 -0.37623283 -0.08099318 -0.112366706 -0.5542235 0.00037434648 -0.016101101 -0.20823814 -0.42201647 -0.22478488 -0.4968144 -0.070320845 0.037036877 0.07940612 -0.36385545 0.17922385 -0.09825909 0.27135667 0.5773791 0.056523457 -0.4660634 0.0012805393 -0.66468096 0.17380331 -0.34792587 0.17843363 0.08638413 0.066365294 -0.18978788 0.24211676 0.25181842 0.040113155 0.11811723 -0.12442795 0.25266013 -0.12368088 -0.12602882 0.025015414 -0.3519477 -0.097019106 0.2206745 0.20947178 -0.5660849 0.039907876 -0.35266683 0.19047938 -0.1573363
25 0.28821972 0.049794618 -0.21508603 0.3049234 0.24898243 -0.04775213 0.12350532 -0.15794455 0.19071127 0.028301504 -0.058754746 0.22412084 0.12852214 -0.120166086 0.050767813 -0.4229348 0.4203932 0.16655171 0.1634551 -0.24639893 -0.07016675 0.3108954 0.002463038 0.08888741 -0.4763612 -0.31450155 -0.14160344 0.2859688 -0.04534565 0.08836779 -0.16416635 -0.2759973 -0.12488144 -0.24883622 0.20549975 0.054577995 -0.12013639 0.48812222 -0.23699772 -0.09699289 -0.36143193 0.23900466 -0.0019135561 -0.20657714 0.27478436 -0.3124371 -0.14058779 -0.0806851 -0.023644457 -0.02324045 -0.022898836 -0.5808059 -0.17149758 -0.1989963 -0.2749985 0.33236828 -0.16145277 -0.025950246 -0.29967532 0.078425 -0.31984487 -0.21691687 0.18064393 -0.12895794 0.32391855 0.113610506 -0.02239347 0.13181292 0.05103582 0.030967684 0.4247742 0.120236985 -0.10215473 -0.056178868 0.10690159 -0.17826502 -0.2086519 -0.4607204 0.102025226 0.1040399 -0.20553863 0.061153762 0.19836095 0.017982256 0.27089286 0.2154127 -0.054727938 -0.042378105 0.21452905 -0.09596291 -0.11831027 0.0033399619 0.07320661 -0.05370879 -0.027992161 -0.4643483 0.18698817 -0.20729132 0.043261975 -0.20618317
26 0.23521797 -0.38715622 0.14341407 -0.06882948 -0.06278186 0.062860414 0.019189216 -0.033191603 0.16141078 0.32238612 0.26791468 -0.19868588 0.41660598 0.124743134 -0.08381179 -0.16571626 -0.009704656 0.1808907 0.2686813 -0.027963148 -0.22995988 0.23273568 -0.233497 -0.017314669 -0.44164056 -0.22627349 -0.19748612 0.18088096 -0.21869272 -0.54345846 -0.15900756 -0.113694154 0.06539486 -0.21309085 0.37681907 -0.06155182 -0.17002806 -0.22288397 -0.016254153 -0.15347321 -0.2814462 0.27725723 -0.1351332 0.24681665 0.025563253 0.08536907 -0.05604357 0.19939262 0.0035879337 0.06852801 -0.28111705 -0.2390537 -0.06538279 -0.29859242 -0.054315794 0.11088038 -0.23861486 -0.2168526 -0.030496111 -0.27876303 0.15112083 -0.1539604 -0.107413076 -0.26133394 0.119524114 -0.07328145 -0.11274274 0.04238761 0.06785892 -0.5169683 -0.12829828 0.11640416 -0.3900408 -0.29124746 0.2528574 0.068662904 -0.04979442 0.34660494 0.017665805 0.06860386 0.24482015 0.07777239 -0.23387341 -0.1480041 0.25898847 -0.105131164 0.01701653 -0.35653397 -0.016517654 -0.35226128 -0.030714149 -0.22618768 0.016513675 0.17096893 -0.13119031 0.19740923 -0.1717742 -0.2800083 -0.20486578 -0.22471938
24 0.24903832 0.0643841 0.34677815 0.15889734 0.009712951 0.053568482 0.33620402 0.29395998 -0.24271208 0.24912548 0.5843328 0.070722036 0.22221301 0.12204853 0.04452297 0.22839113 -0.17740655 0.17646678 0.16754772 -0.15781364 0.07274788 -0.20601293 -0.20620872 -0.31505594 0.11423007 -0.13355005 0.4020264 0.008416805 -0.14809969 0.033543088 -0.30349913 -0.14758702 0.13800544 -0.4019109 -0.056360193 -0.093383774 -0.09463557 -0.17866936 0.01493638 0.08569598 -0.105006896 -0.26245198 -0.2626883 -0.25434148 0.062311817 -0.28406402 0.0048976163 -0.09004265 -0.042394493 0.25141084 -0.08320824 -0.4262808 -0.33838272 -0.3242623 -0.5500135 0.19084398 -0.25943023 0.04709093 0.2636716 -0.27744365 0.34753194 0.40410116 -0.043015495 -0.16428925 -0.09127495 0.32781997 -0.10687964 0.07362206 0.2722432 0.20440459 -0.1332867 -0.29776525 0.37144253 -0.09603884 -0.0037812367 -0.16122131 0.13278192 -0.08333492 -0.2992638 -0.068061665 -0.052346066 -0.073410556 -0.23676309 0.069232285 0.013726775 -0.37673184 0.15858473 -0.13698247 0.06452948 -0.07307171 0.19195916 0.083719864 -0.0898229 -0.25676286 0.4409325 -0.03208019 -0.2904671 -0.18356419 0.30046085 -0.23612171
27 -0.017760672 -0.27294412 -0.03958531 -0.20076044 0.0033126068 0.19985273 0.028698 0.25960547 0.15477006 0.506631 0.271249 0.24795294 -0.25720823 -0.004606172 -0.08955376 -0.05517266 -0.093328275 0.21954411 0.18157734 -0.029246723 -0.0024926811 0.0023323619 0.06653511 0.10973811 -0.35176393 0.13862361 0.111671135 0.049020145 -0.10952681 -0.09662052 0.24898887 0.025109982 0.018888015 -0.35469398 -0.007160887 0.08558454 -0.039446443 -0.26161194 -0.1236185 0.15225042 0.07334203 0.14409484 -0.09190724 -0.06875803 0.39893374 -0.033910487 0.07347679 -0.23675457 -0.1043903 -0.023100683 0.0005805595 -0.49595198 0.114771396 -0.080063485 -0.4800482 0.24322745 -0.053756505 -0.30276355 0.04353285 0.17531285 0.053788316 -0.0274797 -0.018484537 0.11965701 0.40511063 -0.19104381 -0.1046436 0.11072614 -0.028952371 -0.16040847 0.14991002 -0.2393743 0.25599313 0.017390493 0.13670246 -0.031248592 -0.046507157 -0.11541428 0.12117934 0.22838545 -0.24419773 0.05174265 -0.017292429 -0.1464204 0.27408707 0.14362313 -0.43221334 -0.24336097 -0.40325537 -0.12394869 0.17002134 -0.28199977 0.04739217 -0.06371303 0.34160998 -0.07543352 -0.11385985 0.062278647 0.12516741 -0.035316035
28 0.4605482 -0.5391105 0.17082688 -0.07338413 -0.0539914 0.09546098 0.21120648 0.056049764 0.39060315 0.2834525 0.40627274 -0.13410696 0.23836505 -0.1342286 -0.38050508 0.014386238 -0.11185251 0.13623497 0.1532097 0.20369202 0.10109924 0.15724505 0.23794569 0.0060842074 -0.21585518 -0.2194916 0.18493538 0.19119872 0.056053087 -0.10213208 -0.42548507 -0.057976805 0.08230062 -0.4576344 0.12761709 0.38195553 0.03942079 -0.2330065 -0.28171468 0.1805004 0.32491693 -0.21454588 -0.22840574 -0.24362433 -0.25281316 -0.33141014 0.04547607 -0.22091939 -0.36854845 0.34700757 0.051188167 -0.38646445 -0.22164069 -0.10191812 -0.27717805 0.25791788 -0.10137643 -0.047437303 -0.22844204 0.24389076 -0.024316251 0.37331516 -0.38303173 0.31395438 -0.08284498 -0.048911005 0.31202337 0.30870366 0.1804595 -0.13755377 -0.17290585 -0.05732302 0.07644623 -0.43529758 0.523953 -0.19581234 0.26523823 -0.020290913 -0.31315684 0.04365207 -0.2241035 0.002199976 0.15547527 -0.52061325 -0.049817793 -0.381445 0.022724418 0.29361078 -0.19528347 -0.032096107 0.34720394 -0.25374976 -0.090032585 0.12390034 0.0062417956 0.10172821 -0.08722028 -0.09655819 -0.158357 -0.15490644
29 0.17619172 0.14028001 0.2937456 0.06402504 -0.13388826 0.23746313 0.2259017 0.21188588 0.17285454 0.256928 -0.07765817 -0.16790578 0.21896313 0.35994694 -0.4079672 0.09571699 0.35034582 0.34247333 0.062514 -0.4098954 0.16244644 0.044638947 0.09985144 0.043234125 0.07771117 -0.22972706 0.032825988 -0.023693224 0.08111674 0.042210434 -0.22892454 0.04745069 -0.20892513 0.083084054 0.1730009 -0.2747407 -0.16132142 -0.4171048 0.028669368 -0.16757166 -0.33512312 -0.09092364 -0.19311804 -0.027172135 0.181305 0.11858792 -0.1530758 0.07230686 -0.3765931 0.15065603 -0.014150286 -0.4066092 0.20028314 -0.2698063 -0.024392305 -0.35141304 -0.018839875 -0.35876846 -0.10247012 -0.18905395 -0.0010156904 0.025894992 -0.09136867 -0.40514246 0.26021942 0.10599104 -0.32946137 -0.21966965 0.10999982 -0.0043090577 -0.123543486 -0.107698865 0.22016785 -0.16544302 0.2910632 -0.06649688 -0.06417087 0.08999389 0.120039284 0.27339035 0.23159325 -0.14809702 0.11017581 -0.08930267 0.09125044 -0.14149687 -0.20385566 -0.15575948 0.077173434 -0.045143053 0.06508534 0.029519731 0.28236562 -0.013989977 0.06672102 -0.46173412 -0.24385855 0.082138196 0.06700314 0.14325406
30 -0.14832897 -0.16400285 0.22121468 0.22878243 0.06023881 0.25943053 0.250982 0.077515006 0.5593014 0.10931226 0.29085904 -0.17361325 0.23523253 0.106955044 0.09549754 -0.20770049 -0.11146877 -0.45271698 -0.017783111 -0.0766695 -0.1932969 0.29951584 0.0038893146 -0.13217753 -0.57210356 0.08412712 0.013293012 0.2674617 0.122514956 0.039082605 -0.035875574 -0.048944626 -0.12702784 0.12900916 0.1589649 -0.053118102 0.018264676 0.21770972 -0.30513206 -0.37231538 -0.15000276 -0.14590001 0.079455756 -0.18825579 0.03399355 -0.44253695 -0.23117176 0.05525389 0.07850658 -0.10455567 -0.008202351 -0.33257028 0.035921764 -0.30146584 -0.28946686 0.038891137 -0.16523184 -0.21677622 0.035534322 -0.03467101 0.061798178 -0.015239533 -0.101047166 -0.3693224 0.19146615 0.11679118 0.03755545 -0.17696078 0.12993424 -0.24681693 0.16236505 0.36793813 0.30180362 0.009190639 -0.11621269 -0.27967322 -0.100736745 -0.38763374 0.04815166 0.14985576 0.4150451 -0.029972764 -0.06594684 -0.0675649 0.21213877 -0.10327107 -0.14217532 0.08771231 -0.11682652 0.042005353 -0.04381116 -0.24816784 0.063150465 0.032341026 -0.16978633 -0.086899176 0.028154768 -0.296553 -0.040859688 0.21332368
31 0.07351249 -0.020315016 0.004074283 0.19959676 -0.020281805 -0.019148663 -0.044936076 0.046790514 0.34953538 0.2552002 0.009678376 0.14555646 0.17169237 0.1874658 0.22636229 -0.17362767 0.22784339 -0.027107362 -0.078703426 -0.2537126 -0.03583723 0.30517527 -0.17162323 -0.28340137 -0.044465076 -0.023193443 0.014302628 0.3238652 0.06588274 0.0641374 -0.26138145 -0.028542656 -0.3014114 -0.085427105 0.13014178 0.07247083 0.040001296 0.07268181 0.09407775 0.06502984 -0.18270645 0.11086128 -0.033215553 -0.12320113 0.20029257 -0.20653406 -0.084738836 -0.18352066 -0.12986057 0.07884709 -0.13192467 -0.3863895 -0.09561852 -0.47585618 -0.23554835 -0.19269586 -0.27463564 -0.26152885 0.24037825 0.3831598 0.15575892 -0.23071821 -0.2684514 -0.27028036 0.17341942 0.24704042 -0.4046358 -0.28331962 -0.0057752705 -0.08489513 0.08423566 0.36747882 0.14877176 0.05658408 -0.08654351 0.053796522 0.044027787 -0.37911442 0.11792995 -0.15168084 0.46288309 0.0029541897 0.15482816 -0.0368892 -0.034240212 -0.04000915 -0.056177456 0.037364773 -0.07369799 0.008281001 -0.3137369 -0.23953183 0.3005486 0.15325405 -0.28687397 -0.21138093 0.22262508 -0.050309546 0.19319248 0.035426043
33 0.048139334 -0.09696245 -0.084018536 -0.13493915 0.04040459 0.058808178 0.057111748 -0.11258417 -0.08342368 0.25903943 -0.037263587 -0.045486238 0.29092136 0.36671788 0.10656376 -0.035121277 -0.17056836 0.09483456 -0.23146033 -0.15233913 -0.23613179 0.397974 -0.17533097 -0.28862205 -0.51675165 -0.17080805 -0.1540138 0.2827364 -0.06805713 -0.036638226 -0.37231386 -0.13588296 -0.22113018 0.12712826 0.11141986 -0.19693631 0.11210916 0.32399383 -0.11406792 0.16040581 0.27225214 0.14524992 0.052449632 -0.22780748 0.19502638 0.027441371 0.26288024 0.08510603 -0.15060098 0.13925822 0.19763914 -0.48040444 -0.33870718 0.07077532 -0.1276684 0.23277538 -0.26752654 -0.21975641 -0.021480275 0.066901796 -0.07002624 0.02946999 -0.24250089 -0.15529552 0.40168276 -0.119080245 -0.16142207 -0.23621465 0.19391593 -0.2713933 0.4359258 0.14073126 -0.18384796 -0.044663955 0.086796746 -0.22011364 -0.3856404 -0.22230628 0.15570958 -0.0066349334 0.29881808 0.15013388 0.019582734 0.18724246 0.011578714 0.23587827 -0.40798855 0.054110635 -0.27904198 0.111950554 -0.20238443 0.052640207 -0.12073352 0.041330256 0.013758289 -0.45616567 -0.004539716 -0.4738057 0.09494966 -0.013259054
32 -0.044994663 -0.13194428 0.48387334 0.22356503 -0.112808615 -0.58289975 0.008022961 0.21263666 0.4431253 0.16106944 0.42214644 -0.023832668 0.07410333 0.13353516 -0.3357156 -0.73449713 -0.019768044 0.11404365 0.110242166 0.37633196 0.1621102 0.019853523 0.17454639 0.22236589 0.040446777 -0.57575095 0.2133123 0.26037788 -0.3728291 0.56102115 -0.26196745 -0.075056784 -0.095310815 -0.4509964 -0.025074631 0.150406 -0.035602752 -0.3623799 -0.027594069 0.3818271 0.5164558 -0.20472157 -0.3010355 -0.35532677 0.1458593 -0.21017809 0.073925965 0.045673598 -0.6291824 0.21931913 -0.027235152 -0.62921876 -0.29950243 -0.12788478 -0.20021999 0.020126887 0.04521566 -0.33567134 -0.32791734 -0.09623908 -0.377039 0.28356534 -0.28201154 0.108042866 0.5483999 0.26446214 0.058267854 -0.17426266 0.32798162 -0.24435028 -0.34518996 0.037329305 -0.06756918 -0.06551019 -0.17309746 -0.0050331363 0.16581132 0.21283913 -0.12047256 0.1382698 -0.12625517 0.043718494 0.07556942 -0.25672942 0.045340396 0.1785621 -0.17521124 0.22564898 0.006213511 0.24696852 0.3492633 -0.19930315 -0.059779294 -0.22747996 0.050686114 -0.040035553 -0.3181745 0.5012698 -0.18638991 0.09573384
23 0.10353939 -0.182865 0.25773698 -0.4635952 0.015292253 0.096164666 0.11653558 0.34791747 0.061466478 0.18554094 -0.038084026 -0.11977465 0.24351598 0.077528834 0.06647779 -0.18045521 0.13320762 -0.07281541 0.05695193 0.24149308 0.13948154 -0.059478916 0.010603467 -0.27958182 -0.16675887 0.18510614 0.14980902 0.06795957 -0.59133583 -0.11413788 0.12357667 -0.13791244 0.14995344 -0.31930265 -0.0831512 -0.022496743 -0.19171451 0.29138774 0.1324402 -0.38820407 -0.23282276 0.15253417 0.06582756 0.017882466 0.26388496 0.21003264 0.0053850636 0.12813339 -0.24019933 -0.06079683 -0.15012091 -0.48258096 0.24786228 -0.3042257 -0.46375436 0.0541819 0.06508468 -0.1392345 0.10800791 0.0442716 -0.1927453 0.14291713 -0.48418027 0.060569555 -0.027903097 0.03915959 -0.4005763 -0.2283272 0.13562529 -0.20216136 0.06410734 0.03495064 0.120605014 0.24195102 -0.12274549 0.14619748 0.13909256 -0.18061507 0.16626708 0.10563858 0.15241086 0.14893119 0.29428256 0.18771741 0.21214418 -0.087006025 -0.09558029 -0.15206672 -0.1300307 -0.10000431 0.032005507 0.18855168 0.023140857 0.073161095 0.22121306 -0.0848993 -0.12241166 -0.08376891 0.1698032 -0.06648608
34 0.16589697 0.008676363 0.78345186 0.8225613 0.13003868 -0.082591675 -0.17882317 0.4171057 0.14815988 0.11303123 0.042248018 -0.3068144 0.22184563 -0.10526953 -0.7054916 -0.721168 -0.3929577 -0.16218704 0.05624706 0.2637961 0.71169055 -0.23762584 0.021223746 0.13547988 0.39438626 0.16808842 0.4342509 0.39662287 0.033959307 0.30114666 -0.49167252 -1.0437878 0.31320333 -0.45590985 -0.3781731 0.23035221 0.35946095 -0.3561801 -0.17595898 0.0954965 0.099058814 0.036330026 -0.9072376 -0.094877854 0.74397165 -0.2767162 -0.13872546 0.05291535 -0.27182096 0.1654331 -0.48628294 -0.81330127 -0.006432744 -0.33069047 -0.2678137 0.32477975 0.3197008 -0.22371317 -0.22673176 -0.2498675 0.43687195 0.052743956 -0.23775078 -0.067858696 0.12399709 0.165074 0.58607644 0.23462515 0.6660084 -0.36375841 -0.2588463 -0.34194022 -0.017465295 -0.16785167 0.1852842 -0.17660409 0.492742 0.019826362 -0.024728008 0.12299024 0.21247011 0.17186472 -0.16462481 -0.08727671 -0.03866418 -0.28636292 -0.24290694 0.2535376 0.5934859 0.19484961 0.58051646 -0.664914 0.18397193 -0.40176556 0.03816623 -0.061630987 -0.6116012 0.04226192 0.4661718 -0.5499939
35 0.14975642 -0.019147282 0.15244503 -0.2271231 -0.0877962 0.13833202 0.08325333 0.06726367 -0.030721325 0.5695229 0.43764174 -0.22822188 0.22957578 -0.10174772 -0.14785449 0.07943433 0.13336323 0.3353842 -0.045378905 0.22897048 -0.04768139 -0.103271544 0.39683563 0.0010949885 -0.21425569 0.08323433 -0.042853158 -0.081621245 -0.16620478 -0.19035718 0.40849814 -0.04137928 0.38437036 0.12237008 0.15179823 0.07389892 -0.23057353 0.016452387 0.06241215 0.29619667 -0.006614409 -0.04034967 -0.27156717 -0.06730943 0.07436563 -0.47518468 -0.04936964 -0.09704987 -0.4122128 0.043607596 -0.49128708 -0.5391186 -0.07684276 0.0781037 -0.35831025 0.36219484 -0.4141972 0.16171838 0.2088539 0.13607 -0.1847138 0.15107152 0.06815778 0.28650287 0.18423104 -0.04232922 0.113840915 0.037896205 0.2775617 0.10519958 0.14848226 0.13959916 0.02679086 -0.013370658 0.059759088 -0.30362135 0.07794435 -0.1163671 -0.0030256307 0.012155403 -0.1332176 0.03823324 0.11493192 -0.0719096 0.06145229 0.044063754 -0.34315264 -0.3542576 0.008732779 -0.08983015 -0.2204386 -0.6398376 0.054893326 -0.24818738 -0.032687694 -0.21382663 -0.32783258 0.011265982 0.38772848 0.17881788
36 0.1454259 0.20260867 0.5867241 0.91663826 0.33664253 -0.036335494 0.17901587 0.26957837 0.1465961 0.09287926 0.23109244 -0.13488723 0.15323246 -0.2931434 -0.7947279 -0.2758233 -0.3375412 -0.3622642 -0.18305857 0.6102209 0.9454748 0.15673465 -0.103935316 0.27347934 0.25118902 -0.27725983 0.6340467 0.8091612 -0.43882933 0.7915356 -0.27557722 -0.6594356 0.34176907 -0.634229 -0.1846137 0.25453755 0.47879386 -0.17879564 0.13572927 0.31436607 0.05147518 -0.44898725 -0.5122018 -0.2023113 0.4626657 0.42720503 -0.27063066 0.04644389 -0.5418503 0.34639487 -0.19729036 -0.4363875 0.09232385 -0.62269086 -0.41086805 -0.18826479 0.035347115 -0.02865386 -0.3815538 -0.5914746 0.4344976 0.04162366 -0.4411761 0.12312483 0.12003959 0.21913749 0.18597837 0.5276959 0.6272612 -0.24680375 0.06416733 -0.4542858 -0.070574485 -0.20055604 -0.03002393 -0.18195263 0.26028267 -0.27765307 -0.21719684 0.3908925 0.24123238 0.21628769 0.21067725 0.0674617 -0.17083615 0.05365189 -0.20342386 0.33973354 0.2856189 0.09661575 0.8733835 -0.8838891 -0.009153912 -0.29905608 0.12193479 -0.04016544 -0.5005118 0.09819202 0.57024896 -0.6126661
51 0.11537108 -0.0688467 0.24280009 0.24785648 -0.10792001 0.31317014 -0.06321376 0.11172729 0.22459698 0.26347193 0.22339897 -0.0104801385 0.21687119 0.039223958 -0.45955014 0.12794258 0.15771674 0.051784243 0.35536298 -0.18639128 0.3208014 0.137774 -0.25188395 0.10837636 -0.052640583 0.0622902 -0.25282067 -0.31187406 -0.21837269 -0.19066587 -0.09152003 0.13436145 -0.110923246 -0.22378792 0.05169323 -0.2572883 -0.052122094 -0.119996905 0.120518714 -0.06525349 -0.098186195 -0.04916028 -0.028114585 0.0013450081 0.1430868 0.067773685 0.03887597 0.06868878 -0.24870078 0.061713044 -0.01905646 -0.3630009 -0.05729292 -0.15782239 -0.096443 -0.08764863 -0.005202711 -0.5571769 -0.37432197 -0.17708056 -0.03150305 0.35640824 -0.15350266 0.1488569 0.07222427 -0.03147291 0.14560045 -0.3388498 0.21019074 -0.16798343 0.055836637 -0.013075531 0.31793973 -0.08565263 0.105420105 -0.22963542 0.057934925 0.028896907 0.40156636 0.1460119 0.10098456 0.13550499 0.47454324 0.05442099 -0.04198684 0.06687807 -0.051062144 -0.2858016 0.12340644 -0.04599531 0.016516682 0.06004632 0.061330535 -0.2248003 0.28716356 -0.3128483 -0.14066383 -0.36825252 -0.23783144 0.24984153
37 0.30867505 -0.21012211 0.50631994 0.33091578 -0.12532173 -0.04300118 0.5006683 0.16701987 -0.38607043 -0.012003573 0.700453 0.1415329 0.5714098 -0.27194342 -0.269819 -0.39589027 0.01188201 0.13576405 0.23479941 -0.17489271 0.41630635 -0.18935257 0.12690891 -0.04713497 0.27265042 -0.03665484 0.53489715 0.3808018 -0.15819438 -0.0011927865 -0.6114961 -0.6021354 0.009345699 -0.52028596 -0.11996007 0.16626382 0.45234907 0.14368226 0.05447403 -0.05660768 -0.018165197 0.23911847 -0.4155963 0.017819075 0.32031885 -0.28735477 0.14656012 -0.00064006494 0.22045328 -0.047376297 -0.36872417 -0.33953422 -0.19524187 -0.21601708 -0.046372805 0.09586989 -0.024867399 -0.18883666 0.29009908 -0.2919308 0.49391153 0.34136355 -0.3607372 0.3940629 0.71642977 0.1395778 0.13993135 0.15606046 0.38601017 0.3591458 -0.32036847 -0.48885345 0.22466862 -0.20311534 -0.31006745 -0.12809126 -0.09882817 -0.012824097 -0.11855198 0.5027244 0.0759431 0.4328272 0.519143 -0.46508643 0.050624825 0.11941778 -0.43037707 0.44530424 0.07091656 0.17911278 0.244074 -0.48788282 -0.24754249 -0.7291976 -0.10809099 -0.18095249 -0.31534722 0.06599367 0.3548201 -0.26680672
39 0.39456275 -0.23890586 0.628594 -0.20763338 0.08068158 -0.07699548 -0.16799593 0.07085374 0.3290083 -0.08362687 0.119334385 -0.064105645 0.2419571 -0.061667778 -0.23212677 -0.007061114 -0.09336747 0.17326204 -0.07031284 -0.20883326 0.36397558 -0.23756988 0.14243282 0.113298714 -0.076248005 0.18110341 0.14523117 -0.10538939 0.11313369 0.22968967 -0.13549493 -0.019013649 0.40676525 0.121847115 -0.09851248 0.17343597 -0.0071505485 -0.020049062 0.07740715 0.2038394 -0.16782139 -0.2952229 -0.20272937 0.0687019 0.42910168 -0.35224086 0.051393826 -0.16807579 0.28310576 0.2799695 -0.4022963 -0.28009367 0.12330899 -0.040076975 -0.6991331 0.021226216 0.026307764 -0.14193992 -0.009673107 0.08321587 0.35565844 0.27708724 -0.6570479 -0.051582236 0.6283492 0.13295884 -0.3454109 0.16558762 0.34909564 -0.30205616 -0.09453993 -0.24970624 0.09384753 0.032131147 -0.48412785 0.11373378 -0.19056506 -0.017552253 -0.021061251 0.30835605 0.14600086 0.28791943 -0.11415376 0.100942925 0.19356874 -0.3140355 0.09174062 0.1139424 -0.2932789 0.20975497 -0.29216492 -0.43273404 0.080754496 -0.08255093 0.252235 -0.07263859 -0.21575993 -0.07590909 0.13398439 0.0405612
42 0.427807 -0.07666913 0.059819113 0.13671416 -0.27135545 -0.20741042 0.007939126 0.05330805 0.026220843 0.18731464 -0.27063146 -0.112458654 0.036158547 0.30732745 0.1464696 -0.36388052 0.07613972 -0.06787793 -0.0546444 0.048434775 -0.078014664 0.10703352 -0.3465131 -0.031121587 -0.1126838 0.1783627 -0.29486626 0.033180512 -0.24733862 0.10658216 0.10373145 0.069644354 -0.067826375 0.22407123 0.17581463 -0.19614883 -0.14911962 0.078108504 0.17740636 -0.09514882 -0.032872222 0.07271003 -0.32580316 0.19410954 0.088603705 -0.17277181 0.041417826 -0.13716282 -0.2669451 -0.30011562 -0.054690395 -0.43753222 0.06841118 -0.09835321 -0.17377652 -0.0833283 -0.18686424 -0.38282987 -0.029007103 0.10241746 0.08012134 -0.14276119 0.018394636 -0.22026685 0.027004434 0.37992978 -0.034005515 -0.048343837 0.55228156 -0.6288403 0.23048562 0.41987893 0.043475587 -0.104452744 0.24852192 -0.15932135 0.19336487 -0.2999985 0.0040755207 0.2298058 0.086613774 0.068693414 0.105587564 -0.20494887 0.086432375 -0.13206546 -0.20949258 -0.20970112 -0.36216688 -0.08302842 -0.20494273 0.0133137675 0.11311215 -0.051500995 0.075539716 -0.19661143 0.15866275 -0.495573 0.11017414 -0.05440843
38 -0.20134562 0.0038768728 1.0264752 0.5164074 0.35288483 -0.121447556 0.2874186 0.32493028 0.122600734 -0.09210785 0.22885795 -0.3310876 0.6011782 0.13135898 -0.61390024 -0.32683232 -0.75048953 -0.16223356 -0.13577622 0.17614546 0.8976502 0.09151407 0.102921665 0.31163633 0.31076348 -0.35360867 0.6525511 0.6796379 -0.25180984 0.56964445 -0.7731004 -0.72661674 0.40018502 -0.54423946 -0.0070339367 0.30270255 0.5173281 -0.34984356 -0.31105137 0.62680924 0.5096453 -0.13530098 -0.34749126 -0.046415202 0.847923 0.33036304 -0.10320578 0.29924634 -0.32759595 0.1732752 0.108389035 -0.8069164 -0.35604757 -0.052213617 -0.36635327 0.18976033 -0.09724541 0.104053654 -0.0017012993 -0.5158034 0.42739663 0.1854342 -0.59470767 0.12204506 0.632627 -0.037936088 0.40195775 0.31033015 0.46569628 -0.37566948 0.4262845 -0.51315403 0.0007868064 -0.07117328 0.39753455 -0.3500482 0.30607113 0.15345162 -0.20510732 0.4776456 0.3880068 0.15880147 0.35208672 -0.04690303 -0.25540048 -0.10920024 -0.13406336 0.5714103 0.34517488 0.73897666 0.3917157 -0.614422 0.06372706 -0.467176 0.01270997 -0.052315988 -0.84200275 -0.2784322 0.91241336 -0.3528193
45 -0.011508921 0.025949324 -0.16855554 0.071439214 -0.27614924 -0.18581176 -0.10770787 -0.33395335 0.1378436 0.18016301 0.13875419 0.05994936 0.09780448 0.07960827 0.10159742 -0.17420574 -0.03765327 0.1768163 0.04939453 0.06552563 -0.3102733 0.5710051 -0.0030522458 -0.15625511 -0.3647203 -0.02317731 0.1349369 0.21701494 -0.4400718 0.18818805 0.015177662 -0.14106907 -0.34196 -0.14311114 -0.2881648 -0.20151831 0.26333496 0.29124346 -0.038684096 0.070243545 -0.15307398 -0.056288883 -0.005045197 -0.033149227 0.119726315 -0.15686437 0.37152454 -0.40545684 -0.1529972 0.26379305 -0.10905711 -0.35416496 -0.2846586 -0.3901503 -0.14867094 0.01761077 -0.051528133 -0.22055149 -0.15700139 -0.16609354 -0.0274205 -0.32036796 -0.14141357 -0.24551249 -0.021367747 0.013751764 -0.051853802 -0.15957883 0.04674806 -0.16678959 0.22795731 0.44153365 0.23515658 -0.5033505 -0.35104808 -0.30488163 0.22562551 -0.3082268 0.20951687 0.039482467 0.1499375 -0.029602831 0.15300101 -0.04860295 0.1940076 0.22023745 0.0051801875 -0.09777391 0.07782529 -0.1797346 -0.20264429 -0.12173109 0.19706286 0.3247833 0.185253 -0.14167987 0.17326082 -0.37897512 0.54551566 -0.024817372
41 0.08733835 0.059436906 0.9081366 0.120125994 0.426584 -0.1092237 0.09723648 0.1871178 -0.2712413 0.18434756 0.21220818 -0.045510665 0.64646345 0.115346916 -0.4453006 -0.23207852 -0.6363766 -0.07898009 0.36104578 0.13471021 0.9804168 0.02717818 0.2152175 0.34936464 -0.10205326 -0.24182205 0.1807338 0.1475993 -0.117663994 0.8673326 -0.2303147 -0.77181345 0.65382403 -0.6466695 -0.009638749 -0.2757908 0.13037443 -0.7367813 0.09179695 0.42517844 0.6230383 0.121396065 -0.54905015 -0.45385727 0.3511314 -0.24025965 0.5423288 0.04958407 0.17887694 0.16423616 -0.4973462 -0.22163707 0.10009298 -0.5539561 -0.19645183 0.017338024 -0.16442855 -0.1560313 -0.5630096 0.050194822 0.17832328 -0.2011814 -0.48708647 0.1293587 0.031709623 0.09278452 0.46987927 -0.0167652 0.17443998 -0.32960647 -0.5465605 -0.4646716 0.48588732 -0.2752079 0.46538723 -0.106225215 0.5809803 -0.42185548 -0.018426554 0.43133056 0.18209961 0.22704558 0.6586694 0.17349972 0.08350111 -0.07814556 -0.058904238 0.15910614 0.045097902 0.21724823 0.56685364 -0.71127534 0.38970312 -0.43911558 0.15943488 -0.08501872 -0.6638726 -0.28205085 0.46528676 -0.48633167
44 0.19916104 -0.12900414 0.2633375 0.28667226 -0.054736696 -0.06599257 0.11445438 0.21004593 0.29814014 0.22996654 0.014753509 0.53369915 0.13786848 0.60821915 0.24126925 -0.23724118 0.100277305 0.053526357 -0.032012574 -0.25296378 -0.3626194 0.28363425 0.13877282 -0.33093894 -0.22305551 0.093532704 0.5109454 0.40837172 -0.11272387 0.20132163 -0.10255113 -0.40835118 -0.089564055 -0.036821593 0.030451737 0.13371518 -0.2814287 0.1866527 -0.14138561 -0.19920161 -0.26255414 -0.12220291 0.23607929 -0.12723225 0.2716366 -0.1318739 0.020753864 0.13599369 -0.42389494 0.34902325 0.21240984 -0.04570164 0.018740397 -0.45886713 -0.32499528 -0.25569808 -0.04239696 -0.43570438 0.17970355 0.6190979 0.73492986 -0.29751158 -0.5888612 -0.23856546 -0.20348735 0.15607692 -0.20670557 0.08560449 0.19095413 0.12605807 0.20602393 0.4940089 0.40556896 -0.036941487 -0.01157758 -0.094139844 -0.14895706 -0.44223502 -0.3969568 -0.42667225 0.23277849 0.020708425 -0.14255208 -0.1675053 -0.09773181 0.17956589 0.2178422 0.019263329 0.064055435 -0.006583901 -0.3343105 -0.26737598 0.15487365 0.33564538 0.26653665 -0.46150678 -0.0432704 0.17243747 0.45234475 0.020206006
46 0.27942866 0.09114234 0.07932481 0.08571877 0.16294213 0.15685363 -0.08701675 -0.011724036 0.43741938 0.15556313 0.23917146 0.31088412 0.3544802 0.00847781 0.002552659 -0.09630118 -0.0152525725 0.05160085 0.27931648 -0.101226926 -0.23933262 0.41677585 0.19359457 -0.2007936 -0.30746832 -0.2111264 -0.17799653 0.28236103 -0.05307526 -0.0029738534 -0.39151374 0.10990042 -0.25351286 -0.051872145 0.17523973 0.22925559 -0.009228023 -0.03565255 0.014859519 -0.16664672 0.02758628 0.33834267 0.028772162 0.04405919 -0.15598473 -0.22302514 -0.4864341 -0.32213658 -0.48579136 -0.0882118 -0.15491685 -0.5702719 -0.14419726 -0.06551736 -0.14055303 0.01252461 -0.22800994 -0.5423989 0.2028895 0.12350562 -0.12681559 -0.26686087 0.014508453 -0.09200692 0.38278866 0.089971244 -0.5766151 -0.046190154 -0.2981228 -0.08814639 0.1343862 0.0614717 0.14087406 0.14328803 -0.2385231 0.16060384 0.22633693 -0.15568033 0.03945043 -0.15707143 0.38568032 0.22431608 0.2119111 0.015552468 -0.0013401894 0.1768211 0.12915011 -0.14034973 0.05692684 -0.26399973 0.14916873 -0.32593858 0.3570863 0.3107897 0.10488157 0.022587165 0.093827665 -0.28466016 0.32283118 -0.2042165
49 0.07599944 0.15968645 -0.123267025 0.39993 -0.05105522 -0.0030944992 -0.2851142 -0.024386466 0.50444394 0.4321258 0.2802227 -0.08244368 0.21948716 0.22256987 0.23762192 -0.10903937 0.10549033 0.036476314 -0.04982091 -0.31275246 -0.5423599 0.32390723 -0.21526021 -0.15334314 -0.4626741 -0.3691102 -0.071284905 -0.07678714 -0.052277863 0.113936745 -0.4274531 -0.14577128 0.2062825 -0.001921969 0.031443056 0.38261488 0.15033826 0.18360116 -0.040893555 -0.059551682 -0.16288203 0.31254184 -0.16850622 0.069847845 -0.049229324 -0.032811385 0.065177806 0.11844858 -0.4129504 0.053574823 -0.33673552 -0.16649836 0.34779313 -0.30844092 0.1606705 0.11352036 0.23682165 -0.14972216 0.09815659 -0.13202484 -0.2911225 0.22155975 -0.32470185 -0.6930743 0.11724751 0.055835433 0.0539395 0.15180425 0.19186321 -0.07743857 -0.2713535 0.29354548 0.3013776 -0.50012666 0.08926082 -0.12274105 0.10750087 0.020848993 0.07047261 0.2142226 0.1843791 -0.13674937 -0.3051412 -0.1787905 0.08534972 0.054433905 -0.22122867 -0.3348838 -0.06075327 -0.05942532 -0.1684377 -0.10514812 0.3829838 -0.15151869 -0.39995867 -0.10445614 -0.20752388 -0.3366412 0.14980981 -0.4581316
43 -0.15580148 -0.26890776 0.27652904 0.3128124 0.14770545 -0.22650129 0.5801894 0.26285434 -0.35794482 0.28263682 0.49425453 -0.094852366 0.2144318 -0.19785549 -0.35604125 -0.38798195 0.10568917 -0.16755523 0.20262548 0.16756643 0.79584676 -0.21131864 -0.008234001 -0.08340876 0.42160225 0.2325022 0.3352505 0.33892488 -0.28083712 0.1383143 -0.6031635 -0.6721352 -0.09016154 -0.55791396 -0.14309484 0.6434705 0.31076393 -0.3250538 0.03710693 -0.050677903 -0.21403594 0.012423082 -0.6712356 -0.21682331 0.2797155 -0.42967847 -0.58282685 0.09079507 -0.08805509 -0.014583916 -0.39560533 -0.36799368 -0.24886271 -0.033716165 -0.1761032 -0.38065404 0.1385358 -0.49255452 0.098636486 -0.21036083 0.22098665 -0.035386812 -0.5915054 0.49202964 0.20373803 -0.041202255 0.017156769 0.049030848 0.14439204 -0.110884495 -0.30985558 -0.26860103 -0.15508093 -0.70470655 0.3014093 0.086853296 0.02722753 0.015771786 -0.16180052 0.74669486 -0.5602891 0.62934315 0.5632816 -0.30074874 -0.062468104 -0.11146111 -0.4231763 0.5292728 -0.09509512 0.32243994 0.117295876 -0.30224496 -0.028758524 -0.6214089 0.044669673 -0.46258235 -0.8101531 -0.2689376 0.7843869 -0.24048921
47 0.4547449 -0.19256851 0.014281266 0.26560006 0.41874126 -0.0620277 0.21526773 -0.32314306 0.44095552 0.45240456 0.18667793 -0.06102461 0.017469484 -0.026263503 0.21759273 -0.19120327 0.20412344 -0.14049125 -0.51615274 -0.7330661 -0.49055466 -0.25969496 -0.08668639 -0.18974449 0.120274 -0.07200519 0.2614459 0.07673925 -0.1988068 0.104536876 -0.25280073 -0.1633538 0.12001168 -0.21555157 0.4498099 0.33328018 0.10175236 -0.25548542 -0.13415568 0.076838285 -0.34172255 -0.013406185 0.3254343 0.094322115 -0.32363856 -0.16346355 0.31527266 -0.36346054 -0.34338167 -0.039221894 0.058716904 -0.14700691 -0.025249038 -0.49841967 -0.07069174 0.4441128 0.012053453 -0.28381804 -0.05475388 0.241205 0.1160052 0.004891714 0.39553294 -0.35535762 0.54791576 -0.15666899 -0.16259755 -0.3724005 0.3084067 0.11692836 0.052388307 0.33144164 0.2824361 0.038557947 -0.16725272 0.07696378 -0.092324175 -0.59351194 0.25208876 0.40410468 0.035674646 0.392063 0.50366265 -0.21975885 0.13512412 0.22245999 -0.011202673 -0.011875609 -0.01265379 0.0642274 -0.053039066 -0.30304107 0.007878832 -0.06937299 0.118011825 -0.20676915 -0.35324746 0.100532554 0.0023372476 -0.2884528
48 -0.0769331 -0.17915413 0.30140027 -0.12924646 -0.26603994 -0.055144127 -0.03410125 -0.038610414 0.34984985 0.18498145 0.352188 0.115555346 0.10137839 0.5864552 -0.063793495 -0.34370342 -0.27503777 0.15123796 -0.08031395 -0.35102126 0.25914684 -0.23456407 -0.091303684 -0.32660246 -0.3486391 0.34454966 -0.29839787 -0.25110903 0.040850878 0.10972704 -0.07206344 -0.1963448 -0.10262298 0.2698415 0.27888638 -0.13021849 0.028680457 -0.10411084 -0.25966305 -0.26134422 -0.2108066 -0.007428109 0.16388448 0.14373368 0.29064694 -0.2607122 0.072907045 -0.0366876 0.09189331 0.14577834 0.06960923 -0.47311863 0.20256507 -0.24951647 -0.33806312 -0.0065403413 -0.048252154 -0.0926465 -0.15512194 0.17419322 -0.22139865 0.26347676 -0.14073715 0.16844183 0.35997805 0.08856214 -0.114369184 -0.05169087 0.009913636 -0.364566 0.13760138 0.07427357 -0.2785371 -0.41972053 -0.38976294 -0.15710369 0.037925504 -0.12571229 -0.30946732 0.21861348 0.030736556 -0.17596936 -0.278657 -0.14861843 -0.022799538 -0.34267864 0.03139059 0.10762376 -0.2529942 -0.024666283 -0.103018574 -0.54953057 0.015510007 -0.36587504 -0.008355024 0.15724498 -0.38552728 -0.40468758 -0.11766265 0.4244201
53 -0.0050166296 -0.31420216 0.02468872 -0.052291114 0.13550803 0.047550473 -0.05829223 -0.014879968 0.29533517 0.052119326 0.3134 -0.13947237 0.15546732 0.24805184 -0.05808763 -0.14655603 -0.0073156017 -0.12822755 -0.019587453 -0.15020302 0.2869539 0.28860852 -0.2452579 0.04643015 -0.09394164 0.33230674 -0.108594604 -0.037429284 -0.04583941 -0.026820632 0.0655857 -0.20481269 0.101244874 0.12570626 0.2821815 -0.058132354 0.017784014 -0.19844276 -0.10474879 -0.41835374 -0.0996435 -0.04900831 0.32986027 0.17305613 0.09594347 -0.49103802 -0.008050008 -0.022668097 0.15678276 0.18143363 0.092657894 -0.3131089 0.08291868 -0.24527517 -0.57872915 -0.08080265 -0.10962124 -0.26204962 -0.11750071 0.13720763 -0.30844313 0.39903063 -0.23259301 -0.16092463 0.26939172 0.0883349 -0.076769575 0.10758583 0.25753257 -0.54962623 0.1522899 0.11989202 0.08165713 -0.0033298146 -0.27143717 -0.18826297 0.014269465 -0.034289543 -0.21677114 0.030072752 -0.0078083356 0.013236413 -0.088386096 -0.21178292 0.17330219 -0.1756073 0.042571627 -0.0899814 -0.39981708 0.16262046 -0.058849078 -0.21672805 -0.00044306862 -0.29332566 0.03765328 -0.19151472 -0.44356295 -0.1654164 0.017459799 0.12043451
52 0.050754856 -0.34047765 0.22506739 0.46574712 0.24228057 -0.06600371 0.1330742 0.341806 -0.2620763 0.07946049 0.6940194 -0.32341447 0.56918454 -0.23290901 -0.2941811 -0.652698 -0.28554383 0.17709999 0.34438595 -0.012338692 0.5348175 -0.2683631 -0.14140625 0.22226125 0.23503093 0.26016963 0.5963853 0.43493277 -0.12874293 -0.021621013 -0.53398734 -0.6098124 0.36798835 -0.12327895 -0.11027491 0.24936932 0.23245277 0.1497207 0.23551029 0.09289908 0.06850951 -0.45880824 -0.9521787 -0.05095171 0.35378736 0.020064136 0.18564713 -0.19971772 -0.17909509 0.20012806 -0.21985592 -0.62009865 -0.3538831 0.0701577 -0.13003707 -0.12292361 0.38356632 -0.038614377 0.34158674 -0.40110072 0.28755835 0.061102387 -0.565934 0.06567383 0.57520205 0.052982688 0.42398348 -0.4543277 0.18781078 -0.08210493 -0.37989688 -0.16010743 0.40723735 -0.8727069 0.06499709 -0.0040268037 -0.12590429 -0.06555114 -0.7542359 0.83962625 -0.027848836 0.3532066 0.49390522 -0.6003559 -0.2244325 0.052475575 -0.62857366 0.107220046 -0.20832181 0.08974294 0.41207513 -0.28907463 -0.25885388 -0.35064226 -0.10535454 0.04213538 -0.76233566 0.118424274 0.69941306 -0.11742887
54 0.2553127 -0.41109955 0.6969772 0.11381153 0.22155343 0.12939334 0.037653096 0.05148678 0.05563069 0.07071961 0.11592148 0.20983827 0.4755727 -0.35628453 -0.10231606 -0.04839646 0.41929352 0.18802911 0.30186012 -0.21153164 -0.22506598 -0.06758577 0.16729318 -0.20763503 -0.13847706 0.014947376 0.26385754 -0.20024331 -0.40251046 -0.2621329 -0.08012286 0.15299423 0.047097266 -0.04938999 -0.1861136 0.16971411 0.1717604 -0.7272273 -0.33083078 0.020946112 0.117833324 0.12692867 -0.18277656 -0.2696939 0.22753108 -0.54304427 0.22763985 -0.030449899 -0.1681675 0.23756304 0.22925776 -0.42636216 -0.08874212 -0.62018156 -0.5901102 -0.083740845 0.035406854 -0.21372701 0.05013344 -0.20745476 0.10082932 -0.1374577 -0.16044126 -0.30531728 -0.09018483 -0.21659553 0.08232562 0.073071346 -0.10248668 0.25445747 0.24118647 -0.20310701 0.36558324 0.04268151 -0.230328 -0.20441441 -0.25962943 -0.23645416 0.10834576 0.024769034 0.086565696 -0.10613727 0.3465534 0.018051399 -0.16208196 0.32798553 -0.124902 -0.2687633 -0.4498649 0.13465366 -0.12649465 -0.3288297 0.25527683 -0.44810665 0.033345606 0.18430577 0.21556816 0.010499897 0.06984021 -0.124677435
50 0.56184614 -0.2797052 0.31354007 0.4277825 -0.20187512 -0.34092468 -0.020603433 0.08952693 0.1763864 0.46589735 0.07181562 0.4937187 0.5129812 -0.15584315 0.022070307 -0.23037429 -0.2614153 0.3489264 0.43548593 -0.27936807 -0.4764945 0.335456 0.053538363 -0.31467602 -0.3731653 0.4286195 0.38154125 0.27334657 0.14126645 -0.19181089 -0.041185852 -0.032982714 0.0055568586 0.19355842 0.1580143 0.24986425 -0.104296006 -0.3861413 -0.38013244 -0.050068777 0.0727711 0.07653347 -0.21454683 -0.101951696 0.098567 -0.46387833 0.08735578 0.17291087 -0.29997754 0.39907718 -0.13602777 -0.216451 -0.49481162 -0.7451838 -0.016971145 0.035145376 0.34678993 -0.100650825 0.10976283 0.41325784 0.44154954 -0.08914803 -0.49965504 -0.30892524 -0.016873693 -0.098494545 -0.20975184 0.19372045 0.097930506 0.21860443 0.5552075 0.286831 0.07372961 0.06575512 -0.06508059 -0.50168353 0.046525422 -0.5771913 0.08308487 -0.15475552 -0.14492254 0.23488435 0.3237176 -0.09546222 0.10629959 0.3643508 0.35875204 -0.4953587 0.23239493 -0.37230307 -0.18841033 -0.05607919 0.09924124 -0.2627999 -0.045254074 0.09131127 0.26979962 -0.23120604 0.2639596 0.017753163
55 -0.008539823 0.102908924 -0.33276334 0.3734942 0.12735114 0.080297165 -0.2147799 -0.13964058 0.0477551 0.23100391 0.04569882 -0.03332464 0.15453143 -0.11523565 0.17083938 -0.1629124 0.20177981 0.0277849 0.02098928 0.08431056 -0.15250278 0.061542336 0.13944183 0.1627941 -0.22306241 0.17086114 -0.2600597 -0.14272942 -0.2766612 -0.36835456 -0.092508614 -0.21959378 -0.2578953 0.037696816 0.19153155 -0.16093215 -0.08859703 -0.043543283 -0.105983466 -0.102809906 -0.028459538 -0.26660934 -0.12995258 0.08494604 0.13741426 0.20972973 0.085891716 0.1521716 -0.015752304 0.3552479 -0.05655967 -0.541484 -0.2597608 0.0055667986 -0.2166712 0.095794454 -0.1653073 -0.72785735 -0.2909973 -0.08334396 -0.29567438 -0.097666085 -0.45722988 -0.04402219 0.4729351 0.088616215 0.40604445 -0.2361732 -0.029082205 -0.20478685 0.42416164 0.13103564 0.026793338 -0.07476813 -0.034208447 -0.6155349 0.012522379 -0.37094483 0.40552527 0.119817205 -0.1505713 -0.096357815 0.24403156 -0.13414516 0.05458206 0.20720105 -0.35604972 -0.13393071 -0.038490593 0.023710286 -0.20024113 -0.19325282 -0.020917354 -0.26816288 0.02612614 -0.121674165 -0.08370068 -0.17557116 -0.26352447 -0.13646846
56 0.11255788 -0.21623082 0.2122029 0.3737245 -0.35289258 0.8428034 0.344325 0.007999859 0.26264054 0.45242083 0.32852036 -0.012293701 0.19682439 0.038084704 0.13896278 0.19497988 0.14143167 0.28607637 -0.15381795 0.032651473 0.08013579 -0.23671237 -0.37524837 -0.10190407 -0.5698893 -0.14329869 -0.11558742 0.40904543 -0.01166493 0.008623204 -0.25674132 0.08467077 0.50900525 -0.22832789 0.3075108 -0.22410297 0.0875476 0.39526054 -0.1618575 -0.17335919 -0.051402826 0.29219666 0.027204616 0.3323105 0.30400997 0.059274524 -0.10474291 -0.35705483 -0.09528014 0.6703719 -0.57675403 -0.22275932 -0.19058722 0.40812752 0.38005248 0.28789535 -0.11167962 -0.37008658 -0.16410537 -0.037780352 -0.058834933 0.12356169 -0.4236585 -0.064938694 0.8151161 0.17631042 0.25409088 -0.1409633 0.048393756 -0.019413343 0.15686285 0.32534388 -0.1070926 -0.29236272 0.39025933 0.061478283 0.41388386 -0.20172921 0.2473058 -0.23281927 -0.32757995 0.31955928 0.1515629 0.0695386 0.33348182 -0.20574725 0.028262194 -0.34618276 -0.07056152 -0.039742474 0.06833554 -0.31836936 0.10171449 0.5241846 0.028326752 0.018191421 0.58292747 0.08100876 -0.1296851 -0.2567281
58 0.24611598 -0.13535503 0.40373945 0.11426192 -0.1482646 0.30873546 -0.21950601 0.20013632 0.11842796 0.12082552 0.0104739955 0.2258711 0.50407076 0.31484026 0.4584267 -0.19979446 0.24249132 0.4605114 -0.13226025 -0.07720912 -0.25355282 0.12610263 0.28394845 -0.13147832 -0.23241736 0.26481673 0.34050342 0.5292894 -0.05115622 0.22529492 -0.11563118 -0.21954797 -0.01720113 -0.07724447 0.15954523 -0.017899215 -0.47439355 0.2317475 -0.12034512 -0.03199938 -0.25613785 0.1740316 0.20157982 -0.39888918 -0.06306702 -0.1122419 -0.14151767 -0.27267173 -0.10236351 0.5242041 0.25033674 -0.010059669 -0.2610578 -0.6207606 -0.31803134 -0.41934586 -0.021681553 -0.3946115 0.46869847 0.2680023 0.50864965 -0.3682234 -0.48291403 -0.2890224 0.1337575 0.16830057 -0.4594665 0.17688501 -0.11996108 -0.2581948 0.077289246 0.5001427 0.29631597 0.2043327 0.4002452 -0.38020316 -0.15270191 -0.55896765 -0.120499074 -0.07813228 0.25938156 0.03813166 -0.086671844 -0.028903242 -0.40201393 0.13620642 0.34331775 0.31283277 0.06430651 -0.092214376 -0.4996002 -0.291223 0.19283822 0.5285378 0.57452667 -0.08993692 -0.24971028 0.0005227268 0.5137386 -0.08234938
57 0.51158667 -0.0315773 0.7568125 0.3614363 0.111493014 -0.16421014 0.39152578 0.29621318 -0.41705978 -0.025245393 -0.16161634 -0.16093995 0.5015603 0.031492125 -0.16448657 0.06731941 0.3221858 0.36019868 0.46272004 -0.10716274 -0.16771515 0.055105716 0.3574295 -0.040262945 -0.01642211 -0.10088596 0.0040604514 0.26711136 -0.31057963 0.21502255 0.13572519 0.0286922 0.10980323 -0.26233888 0.13412586 -0.13967589 0.12165016 -0.8469129 -0.16900817 -0.4689465 -0.086187385 0.005609114 -0.10175817 -0.1209972 0.40066466 -0.58219963 0.0061696367 -0.13892697 -0.05966265 0.18020944 -0.36419353 -0.41996914 -0.15067226 -0.76357114 -0.49310616 -0.08329419 0.4339298 0.141777 0.111527756 -0.32476556 0.5145507 0.15545163 -0.35424557 0.013978836 0.017467277 -0.14153993 0.19143717 -0.044668537 0.26812458 0.10120784 0.14251836 -0.014909713 0.14569363 0.15859462 -0.10667997 -0.35019365 -0.65580815 -0.07555 0.19823392 0.20500761 -0.009859098 -0.2386113 0.42207348 0.0031569689 -0.47485447 -0.09594937 0.14061217 -0.1747844 -0.4119969 0.09803456 0.075477906 0.07467854 -0.028322376 -0.018972289 0.118924 0.4699476 -0.17269452 -0.006454243 0.41469976 -0.44386086
40 0.35631043 -0.109053746 -0.27408016 0.20595138 -0.016184077 0.12506308 0.50312537 0.20969613 0.071483664 0.5676147 0.35950136 -0.06659552 -0.13901363 0.028576586 -0.1071547 -0.23685536 -0.13968416 0.19026269 0.14055943 0.23181717 0.23308837 -0.27776292 -0.2667791 -0.19938034 -0.21643409 -0.019945012 -0.20912246 0.33573133 -0.2242594 0.03269248 -0.100078106 -0.08287755 0.01645538 -0.18410428 0.3164078 -0.14019303 -0.12254842 -0.15701106 -0.37787247 -0.2169162 0.03768105 -0.24587327 -0.2820898 0.49175733 0.22491045 0.048226353 0.017322952 0.10417477 -0.6285661 0.28773466 -0.16986318 -0.52068514 0.10730854 0.401316 -0.12675329 0.18237513 -0.34465694 -0.61012876 -0.70926076 0.35567656 0.020661803 0.26035014 -0.26399586 -0.19935614 0.041790683 0.12607859 0.44084564 -0.048265193 0.412566 0.19728868 0.046951152 -0.22977741 -0.10622879 -0.040764917 0.36666614 0.26601702 0.13698551 -0.10568367 0.1118555 -0.10289475 -0.106206216 -0.01964465 0.15573256 -0.40115255 0.22307253 0.23819023 0.069775015 -0.5722442 0.1528898 0.32399324 0.09233552 -0.10877549 -0.22572 0.19754384 -0.20691745 -0.3767045 0.102585524 0.26889306 -0.12862898 0.19924739
59 0.54832333 -0.04572758 0.30235708 0.20885132 0.22429194 -0.12131528 -0.1551357 0.40987453 0.32045177 0.38123775 0.37205386 0.3589789 0.25964132 -0.12357822 0.05049087 -0.005276498 -0.13889755 0.23500772 0.284655 -0.21495472 -0.28977978 0.13454406 0.20509459 -0.20048177 -0.43623087 0.049983107 0.44658113 0.36506912 0.12163925 0.19354068 0.057873134 0.19714539 -0.12085037 0.04535791 0.1447837 0.4547925 -0.0067741144 -0.05682363 -0.2434855 0.032479096 0.06865628 0.39106786 0.31162634 -0.20012179 0.14849207 -0.44934434 -0.22339731 0.045567647 -0.3103506 0.4138359 0.40013483 -0.06915213 -0.45689335 -1.1340451 -0.16294967 -0.3025816 0.35179973 0.09306659 -0.16216937 0.11447457 0.010395844 -0.27662948 -0.6677295 0.036136717 0.2813892 -0.13166241 0.10418056 0.19965288 -0.059663583 0.41583177 0.49530184 0.027800903 0.4632919 -0.11010223 -0.28482994 -0.54588175 0.09463742 -0.5237431 0.010776639 -0.09577054 -0.010637917 0.11986721 0.40251112 0.54197186 -0.21261485 0.5973546 0.20578986 -0.28770155 -0.050629817 -0.107278466 4.9895436e-05 -0.12553053 0.194892 -0.10166034 0.19158815 -0.17745724 0.025658451 -0.15073557 0.4802812 0.090637125
64 0.15285432 0.08455707 -0.062087398 -0.0018179987 -0.04169528 0.27279636 0.05475774 0.19564831 0.15259235 0.21407522 0.09399557 0.2344112 0.2916573 -0.39347285 -0.115567595 -0.25079072 0.046381146 0.033091683 0.2667367 -0.27277493 -0.076272875 0.1318379 0.536372 -0.1332905 -0.30900803 0.21794501 -0.25272888 0.106642395 0.045017697 0.10288203 -0.077460386 -0.57337606 0.012264449 -0.0670303 0.17611483 -0.1638081 0.013224732 0.45553643 0.27691513 0.069998525 0.022680828 0.1371311 -0.005823375 -0.12763725 0.41878867 -0.3811292 0.14860325 -0.06905957 -0.3948903 0.17990512 0.46454096 -0.37292236 -0.07762011 -0.033821292 -0.16832832 -0.06998111 -0.20772107 -0.3922325 0.28069785 0.44789237 -0.21960977 0.33458745 -0.33097515 -0.21033928 0.28198686 -0.13855945 -0.13357893 -0.34224617 0.030643597 -0.29751113 0.3278822 -0.021550646 0.08999856 -0.14133134 -0.16812453 -0.14004122 0.043570634 -0.52229255 0.31109273 -0.16231133 0.3811724 0.37560266 0.06879012 0.0051638614 -0.02635781 0.2583652 -0.0777119 -0.06757338 -0.2661312 -0.030870061 -0.07926072 0.10712291 -0.10877267 0.3679379 -0.09917209 -0.08320825 -0.0845506 -0.1796993 -0.029561438 -0.4598981
63 0.06835022 0.053849153 0.102629185 -0.16679548 0.0039745974 -0.2357813 0.07816212 0.049923707 -0.0842932 0.3301626 0.0009651475 0.100104585 0.4066511 0.36102852 0.0068758875 0.22154285 0.017158557 -0.0062894104 -0.23165126 -0.19412659 -0.28488857 0.24154072 -0.4379656 -0.33454067 -0.3770402 -0.16802275 0.162132 0.38871467 -0.17777199 0.057027176 -0.4955475 -0.0037961502 0.09508384 -0.050740972 0.13078135 -0.28170082 0.21859354 0.028622301 -0.09326818 0.12819554 0.17362367 0.24290778 -0.09855631 -0.14090739 -0.13039969 0.1390073 0.009524769 -0.0449127 -0.23847921 0.053961534 0.21693769 -0.43938774 -0.2721972 0.079473086 -0.175175 0.2653187 -0.31749424 -0.051701527 0.06695346 -0.0844157 -0.0038484237 0.009913214 -0.32472834 -0.053232726 0.22153422 -0.1530444 -0.19248365 -0.28118458 -0.021189975 -0.123007074 0.25301382 -0.014234358 -0.16703947 -0.10350595 0.17703569 -0.24864286 -0.31988075 -0.1798066 0.0646141 0.12388228 0.22011484 -0.12988682 -0.029136375 -0.05702578 0.15940721 0.231581 -0.19066174 -0.21197022 -0.36768106 0.084701866 -0.32269713 0.0017472486 -0.048123945 0.029075935 0.045237068 -0.48299474 -0.15915515 -0.3899455 -0.056771927 0.10111512
61 -0.027254067 -0.22435437 -0.13811989 -0.057563737 -0.15337116 0.27939522 0.10864001 -0.2561563 0.0582651 0.08411782 0.018989645 0.1447906 -0.015921695 0.21140864 0.1849134 -0.19405246 0.08421216 -0.027598208 0.11652925 -0.021029722 -0.26298413 0.50666285 0.0015299172 -0.04272495 -0.44795784 0.14629881 0.03014535 0.14146355 -0.3052071 0.113049425 -0.13461356 -0.297269 -0.29008192 0.2395282 0.24461153 -0.04252638 -0.1035598 0.161914 0.15312816 -0.38416663 -0.23364626 -0.23601668 0.098997705 -0.122108474 0.42545766 0.0013752711 0.07985994 0.00995584 -0.12034549 0.3400673 -0.22523464 -0.34615046 -0.4732024 -0.22947478 -0.21163532 0.010241839 -0.110818654 -0.29503885 -0.045076642 0.04571263 -0.17218088 0.095918946 -0.1694653 -0.18160807 0.28480077 0.14609827 0.28164688 -0.19576472 -0.33762076 0.033127625 0.2554501 0.17757607 0.1973021 -0.254672 0.18941288 -0.05711768 -0.05942185 -0.21179895 0.23066959 0.026745697 0.24942786 0.11454067 -0.037320405 0.15387245 -0.20327754 0.06331555 -0.10790123 0.0016426184 -0.09093313 -0.18644062 0.021877358 0.1214791 -0.15630561 0.2745553 -0.083098345 -0.29729074 -0.09135041 -0.20039189 0.11360729 -0.318497
65 0.24647677 0.16190642 -0.04595798 0.26754186 0.13588785 0.08418245 0.25452173 0.16316323 0.005709386 0.36500052 0.09041306 -0.13244295 0.26187065 0.0076024756 0.39623156 -0.09711663 -0.043958496 0.115244366 0.015837956 -0.24383222 0.11962516 0.07075678 -0.028985 -0.30559373 -0.27539125 -0.19219223 -0.008979589 0.23800649 -0.044485994 0.09001464 -0.05226969 -0.12782462 0.050854985 -0.14826496 0.12594609 -0.24560598 0.036254868 0.44552782 0.33502927 -0.034534283 -0.050224178 0.32145157 0.11103923 -0.17250904 0.06355517 -0.15210669 0.1831023 -0.1333981 -0.5122727 0.3481896 -0.042872753 -0.22870691 -0.13635878 -0.2947173 -0.25716865 0.24633582 0.001333508 -0.09268176 0.30424875 0.2870073 0.25683522 -0.57847875 -0.06211183 -0.13480769 0.28418493 0.07472962 -0.24356161 0.059867345 -0.09320972 -0.24963203 0.5482245 0.42739543 0.24376808 -0.082012326 -0.0154924095 -0.15601698 -0.13207413 -0.7162495 -0.06157897 -0.22452863 0.10791135 -0.09553853 -0.2627481 0.15243508 0.3358243 0.016621038 0.03396422 -0.0413339 0.047554452 -0.19933368 0.17457733 -0.10679476 0.29211393 0.5664061 0.08110523 -0.098684095 -0.23272137 0.030505342 0.013990791 -0.12767836
60 -0.121943854 -0.1382891 -0.08118271 0.075191915 -0.3132955 -0.30699453 -0.024428708 -0.16777956 0.13023917 0.07947405 0.085700065 -0.21884775 0.22746475 0.13017559 0.060400277 -0.19533005 0.3601677 0.054102555 0.2899543 0.19637252 -0.37174192 0.5761625 -0.15619993 -0.009348568 -0.19154534 0.12516268 0.3070469 0.29540333 0.07924518 -0.17009237 -0.13103619 -0.22885579 -0.28804412 -0.24375655 0.12113015 0.1989971 -0.08196378 0.2845054 -0.14680015 -0.14717546 0.021906262 0.11864084 0.26758152 -0.09047988 0.29234082 -0.3207277 0.3037427 -0.03471386 0.15404002 0.45578474 0.17329097 -0.2002731 -0.32904986 -0.5459592 -0.20969728 0.062714815 -0.0052225483 -0.3221216 -0.10543418 0.24939728 -0.04318348 -0.40138847 -0.14168222 -0.30900285 -0.048564766 0.2462839 -0.23999004 -0.39150113 0.3026026 -0.09086254 0.08729438 0.2486908 0.1558621 -0.32792744 -0.2114878 -0.22322078 0.036069337 -0.20588934 0.22917075 -0.27729213 0.40900618 0.06918224 -0.0012574574 0.18494973 -0.38774613 0.20397413 -0.2386343 0.075756714 -0.48038265 -0.025577538 -0.4434191 -0.5775719 0.19777806 -0.05940844 0.010143021 -0.048526723 0.11904439 -0.02508562 0.25430158 0.15521426
71 0.5944288 0.13154934 0.07145588 -0.06450985 0.07959464 -0.050123878 0.09589764 -0.21239048 -0.3021115 0.30129293 0.3161062 -0.02202672 -0.18794538 -0.1245421 0.14840074 0.11146269 0.19439416 0.13162655 0.18134145 0.15416405 -0.22847477 0.2209452 0.2641072 -0.18215653 -0.15474245 -0.023685446 0.09478585 -0.01409098 -0.30753702 -0.0022934498 0.09222804 -0.05294098 0.6443221 -0.20024341 -0.0045698215 0.2766533 -0.41788945 0.06207288 0.23494446 0.008887195 0.06839923 -0.07016653 -0.20800847 -0.28005654 0.024521308 -0.030111598 0.064571396 -0.31406388 -0.47019222 0.038049906 -0.26318416 -0.6117859 -0.108374186 -0.01871059 -0.093864515 0.12153732 -0.47973716 -0.18519796 -0.030448185 -0.11695356 -0.0015105159 0.2269647 -0.06577354 0.15216835 -0.07019053 -0.09559768 -0.012466772 0.1547307 0.034525976 0.22954941 0.18201178 0.17813788 -0.20526034 -0.30247805 0.2057208 -0.27223328 0.112372234 -0.27532208 0.020365952 0.29418486 0.057510104 0.090169735 0.15104118 -0.0703243 0.14009458 0.057891242 -0.43439493 -0.38520458 -0.3289472 -0.12482898 0.15690774 -0.41583905 0.18765424 -0.012715753 0.16762169 -0.26992112 -0.26657116 0.46661627 0.098062 0.2738188
66 0.16792114 0.03784444 0.040486574 -0.029603597 -0.093136616 0.17185417 0.15649565 -0.037238486 0.40070462 0.34357807 0.39936936 -0.118245244 0.0588574 -0.023857946 -0.18284339 -0.067136556 -0.17978993 0.29130283 0.03760082 0.08594098 0.16789187 -0.09305178 -0.1079223 0.07213832 0.10852485 -0.0022188337 0.15366013 0.21608007 0.13617897 -0.11225853 -0.41031694 -0.067940645 0.1360316 -0.47657788 0.15108041 0.18653925 -0.15644333 -0.13523853 0.2975624 -0.23497802 -0.11473396 0.009678861 0.01549187 0.12327525 -0.1810241 0.08357538 0.03223231 0.18888912 0.06985966 0.27280146 0.19578792 -0.50001 0.016609691 -0.31864378 -0.2074283 -0.052010812 -0.18263687 -0.14321175 -0.3147907 -0.13094196 -0.11209608 0.12096544 -0.3340779 0.20952608 -0.0066590966 -0.14106761 0.2950656 0.09543696 0.1588809 -0.4665743 -0.081604086 0.104262576 -0.15365833 -0.18778113 0.3056707 -0.22969618 0.033579577 -0.093485825 0.038160402 0.031657886 -0.14519829 -0.19510162 0.19224927 -0.28640282 -0.08384766 -0.40788797 -0.1038744 -0.06624122 0.13894409 0.023179598 -0.16534257 -0.14033563 -0.21406953 0.03184473 -0.15954441 0.019074244 -0.23107386 -0.046156842 0.13200937 -0.039477944
62 0.3754483 -0.3735827 0.13346706 -0.30404025 -0.08009574 -0.021263143 -0.067626454 0.018654777 0.25355408 0.37655905 0.45957053 -0.04408796 -0.19859245 -0.433059 0.050962023 -0.2904218 0.22141142 0.06495304 -0.27943996 -0.41008484 -0.02344149 0.06467151 -0.1545993 -0.035090946 -0.28259337 -0.026823856 -0.54443574 -0.00987935 -0.5379404 -0.035558995 -0.20153013 -0.29883784 0.050570972 -0.104811884 0.012433329 0.018012986 -0.10379601 0.1158022 -0.06845817 -0.077898465 0.032958243 0.41190624 -0.25543633 -0.28701136 -0.06074835 -0.103206374 -0.14321665 -0.2882554 0.003254337 0.3719237 0.31118992 -0.40740067 -0.070180885 -0.19416253 -0.15603256 0.46638188 -0.027460841 -0.24319127 0.048343066 0.22155786 0.0780321 -0.054299057 0.07432853 -0.2301536 0.19228229 0.2823283 0.058028124 -0.29387885 0.045500524 0.015707033 0.4466278 -0.15591423 0.07393288 0.29021382 0.019583289 0.33020434 0.16072865 -0.26855627 0.03360516 0.27791986 0.048735216 0.05888702 0.15144719 0.12446674 0.07414773 0.2520114 0.03560354 -0.2932191 -0.072386704 -0.26266378 0.122056074 -0.42122585 0.10155649 0.38018447 -0.04899137 -0.2995129 -0.054533605 -0.13354592 0.043780286 -0.09383177
67 0.40826896 -0.75288343 -0.018721106 -0.19167675 0.10168861 -0.022239273 0.016208027 0.1973967 0.29403016 0.30007505 -0.118521795 -0.094318345 0.46487918 0.24285549 -0.4843166 -0.12009311 -0.024287967 0.15497424 0.16864496 -0.04980217 0.24466228 -0.039609216 -0.1123035 0.092198886 0.013613311 -0.03727213 0.16990325 0.3715642 -0.1530575 0.046112154 -0.06394525 -0.056613643 -0.03835554 -0.37361014 0.121014714 0.010457072 -0.17970392 -0.19167925 0.018425316 -0.47053346 0.19823791 -0.29969168 -0.29544136 -0.4804613 0.029409913 -0.23414095 -0.056073535 -0.01965919 -0.21557257 0.05384178 0.14457387 -0.14414883 0.0016078764 -0.46208477 -0.16913381 0.29462805 -0.023187064 0.068420716 -0.0044216905 -0.28108764 -0.114998765 0.26984832 -0.3802255 0.25930175 -0.07013615 0.104766846 0.1615337 -0.29972023 -0.05370313 -0.07719929 -0.46143752 -0.28848988 0.06864249 -0.5018987 -0.05513409 -0.2079527 -0.051243275 0.1901104 0.023591524 0.3138713 0.1804965 0.07717499 -0.25001058 -0.22477123 -0.19591868 -0.18712562 0.43009043 -0.0019405088 -0.26536083 0.18064156 0.15526581 -0.4187302 -0.0363956 0.058842905 0.121120304 -0.090463586 -0.42044786 -0.24006574 0.18886676 -0.27167073
70 -0.021438872 0.08323405 -0.010209119 0.06418819 -0.086539835 0.13631918 -0.01431171 0.09855312 0.5024866 0.2921372 0.066856354 -0.10245904 0.12220977 0.06311035 0.24082255 -0.20452249 -0.10664551 -0.10349299 0.109614916 -0.16142496 -0.068933494 0.37388024 -0.06060535 -0.22528617 -0.16978858 -0.29901463 0.052353106 0.14307696 0.13656984 0.15424198 -0.52354354 -0.13728267 -0.18406428 -0.09865069 0.20139983 0.13108401 -0.19864883 0.23299102 0.22285914 0.0021453246 0.030813422 -0.04836902 0.083094366 0.031063685 0.10888446 -0.21457554 0.022468103 -0.07988966 -0.15127099 -0.07682757 -0.08394743 -0.21977507 0.11152746 -0.383557 -0.26022944 0.01346746 -0.12326062 -0.50172395 0.3025104 0.5674336 0.0067567155 -0.22205894 -0.09772364 -0.12870067 0.44503865 0.2853547 -0.26628113 -0.15704429 0.4370283 -0.09598631 0.21023959 0.09081108 0.23407395 -0.15337136 -0.14959598 0.16089535 -0.08627289 -0.27775228 0.19910583 -0.04416596 0.25478923 0.21320054 0.14911161 0.0757087 -0.23197506 -0.0022388482 0.123159595 -0.04109435 -0.22433148 0.010670838 -0.33253974 -0.3005684 0.25721544 0.3672389 -0.1323922 0.084582515 0.009764341 -0.17844862 0.20312105 0.046418175
68 0.11277857 0.054343946 0.37984788 0.046562742 -0.10134775 0.224823 0.27666274 0.05348444 0.19903845 -0.14522593 0.19908473 -0.45523405 -0.023113111 -0.05109193 -0.18971586 -0.013124284 -0.2654695 0.33533868 0.30578506 -0.09362338 0.44830203 0.048891827 -0.10659688 0.050752047 0.024560913 -0.022931708 0.10203616 0.39945835 -0.06660332 0.071768895 -0.45257467 0.12024799 -0.2159686 -0.2158535 -0.043771666 0.4416108 -0.05489309 -0.34479564 0.24764298 -0.09014678 -0.12613524 -0.08157918 -0.24004805 -0.024538772 0.078471445 0.09805344 -0.07309187 0.42206907 -0.07608194 0.27757692 -0.1158911 -0.49410698 0.2476931 -0.017921286 -0.21530616 0.10541184 -0.14717442 -0.2085902 -0.12633732 -0.059176512 -0.14300379 0.19947591 -0.17851494 0.23278633 -0.057165112 -0.0010955924 0.04462432 -0.28584874 0.05281535 -0.41331604 -0.05349904 -0.11668097 0.010171362 -0.06222866 0.23201145 0.02300583 0.052806165 -0.2246539 0.43917063 0.05301189 0.08704683 -0.088884376 0.20613495 -0.2792361 -0.17071405 0.18954326 -0.038948085 -0.28416848 -0.007864127 -0.12566686 0.28975478 -0.36040026 0.04639675 -0.12206086 0.19105928 -0.168766 -0.122384556 -0.052143533 -0.16402508 0.03177216
73 0.0705321 0.06415412 0.10168984 0.07430572 0.015620989 0.25952217 -0.19992623 -0.09473156 0.0001119366 0.6133722 0.115259714 0.07119215 -0.06078843 0.16293834 0.07697383 -0.30843112 0.21080053 0.21385778 0.341443 -0.30145678 -0.109178185 0.40314928 -0.2461467 -0.19313732 0.03347163 0.053209856 -0.043253105 0.08879076 -0.17045228 0.14540154 -0.22712627 0.0067626927 0.08832574 -0.09327964 0.3761828 0.082803786 -0.13131447 0.11981752 -0.41370067 -0.42246515 -0.43677124 0.15905336 0.07526699 -0.33096302 0.031736266 -0.025929756 0.14579391 0.007866305 -0.49947095 -0.06888623 0.07579801 -0.13611153 -0.46605802 -0.45894745 -0.09823825 -0.14736865 0.20889042 -0.059674025 0.46143562 0.16712022 0.058734972 -0.18068331 -0.33308595 -0.06749849 0.16128667 0.3262197 -0.02916167 -0.09209025 -0.04669963 -0.042962745 0.47888482 0.051075768 -0.0005004968 -0.3654473 -0.2847972 -0.3126088 0.04093964 -0.6203632 0.33339477 -0.39143372 0.34705332 0.07283949 0.28002438 0.24185471 0.11957053 0.13381447 -0.15793957 -0.22616637 0.23187865 -0.12245206 -1.7513548e-05 -0.2507873 -0.146806 0.06962374 0.41041815 0.043752436 0.30716184 -0.18680826 0.54103196 -0.021943495
72 0.23150048 -0.016607035 0.16208053 -0.006487619 -0.2306651 -0.055586934 -0.023238186 0.0687477 0.11166701 0.08842289 0.010473774 0.17569143 0.096842766 0.25206414 0.28248048 -0.050167613 0.13215256 -0.23233706 0.026373507 -0.13633703 -0.15548897 0.28212675 -0.13304353 0.14961739 -0.26523978 -0.226506 0.02738469 -0.08951962 -0.2783165 0.12744164 -0.11972119 -0.1393271 -0.22114277 -0.26720726 0.118530646 -0.43679914 -0.28212774 0.24813564 0.037492204 -0.1473671 0.025271507 0.15478489 0.10579798 -0.20906012 0.06083319 -0.21287705 -0.044712573 -0.18528989 -0.30357718 0.27432027 -0.15426688 0.09375434 -0.23148634 -0.49751404 0.051481366 0.10633382 -0.070246875 -0.61542374 0.08580481 0.31687027 0.20605494 -0.072976045 -0.2571021 0.042265777 -0.0530426 0.48574466 -0.26142576 0.029580211 0.17986192 -0.34894094 0.5296699 0.5474305 0.38836288 -0.1363853 0.30806798 -0.21280712 0.08114087 -0.022682361 0.10401115 0.12719971 0.41944173 0.021167636 -0.22528736 -0.010045005 -0.11319555 0.0017301949 -0.25542277 0.24238724 -0.14918047 -0.20824926 -0.23238035 -0.32085487 -0.046614233 0.12486351 0.3901471 -0.18497343 0.031529836 -0.10210159 -0.017163893 -0.25667825
76 0.3262983 0.6945351 0.35105458 0.2787362 0.009925257 0.105277315 -0.52222466 0.17190847 0.19517134 0.11043509 0.105287574 0.2542654 0.047591325 0.010045626 -0.34606785 0.60328823 -0.13792704 0.28913954 0.4868601 -0.6093651 -0.023993116 0.22693002 -0.17182232 0.21528398 -0.31196406 0.058836278 -0.09218257 0.1633389 0.036006708 -0.6182465 0.2622754 -0.30105707 0.47284853 -0.108404964 0.67092663 -0.03671738 0.20115347 -0.11401869 -0.3373719 -0.11673037 -0.27351055 0.09855697 0.07549689 0.31031445 0.15830971 -0.19730297 -0.036931437 -0.14052486 -0.296106 0.377838 0.04707246 -0.23236397 -0.29312518 -0.5576911 -0.16562764 0.16834404 -0.09519421 0.030398471 0.37543213 0.028071584 0.10061588 0.009483147 -0.40480706 -0.053146187 -0.062286988 0.1525041 -0.11160377 -0.017447764 -0.51095456 0.5334649 -0.044266343 0.0763906 0.25124422 -0.21628691 0.14596356 -0.6270114 -0.030245772 -0.18716317 0.2115758 0.10356752 0.6922983 0.074116826 0.21326612 -0.59024704 0.026014902 -0.2175268 0.035167255 -0.44096133 -0.5354645 -0.11624128 -0.17629094 -0.002206561 0.5260555 -0.22393444 -0.40960136 -0.043604307 -0.123522945 -0.0853627 0.15023285 -0.6293991
77 0.20649385 -0.1578484 -0.10208076 0.054456383 -0.109673955 0.06709168 0.080819495 -0.09314959 0.26053277 0.51725936 -0.047411997 0.0101399 0.18179572 -0.28155664 0.26426998 -0.11465135 0.04153214 -0.15573274 0.114838466 0.003705607 -0.19769435 0.29302993 -0.2066556 0.09421438 -0.3644765 0.111902066 -0.09152289 -0.03193853 -0.11924477 -0.09014397 -0.11677402 -0.022519344 -0.28651926 0.17644258 0.30316445 -0.32770416 0.14188257 0.18399195 -0.11587153 -0.10148641 -0.24266905 0.15734759 0.13775915 -0.078555346 0.21315216 -0.15846553 0.12340306 0.0427857 -0.0763138 0.14040272 -0.28016648 -0.39156792 -0.12929769 -0.35787562 0.0023015817 -0.038236395 -0.23350523 -0.29141754 0.023354018 0.1426167 -0.17100526 -0.16592287 -0.2905719 -0.18287283 0.2745957 0.20991737 -0.16134392 -0.20334727 -0.23436764 -0.0077578756 0.55259854 0.02357398 0.091330715 -0.21431476 -0.090954304 -0.5470862 0.23851041 -0.14525624 0.0645377 -0.14869198 0.028730394 0.006354001 0.28417835 0.10592129 -0.21005532 0.11380806 -0.3424956 -0.23272775 -0.0050286 -0.07529097 -0.056006633 -0.18744914 -0.34483653 0.19437103 0.23449703 0.10272771 -0.3049557 -0.034581408 -0.0053062323 -0.28016692
75 0.4278333 0.02216585 0.46109796 0.042022586 0.050662305 -0.34900337 0.23446228 0.22791108 0.17106616 0.19573331 0.36634088 0.11692987 -0.038555972 -0.104300946 -0.3815246 0.2763392 0.5573472 0.36251917 0.16037855 0.04050789 0.030011185 -0.08154934 0.42728722 -0.029632444 0.07549176 -0.24657339 0.55900437 0.08183735 -0.031540252 0.34109956 -0.10324764 0.05317668 0.5679659 -0.29486576 -0.39112726 0.04391443 -0.06384634 -0.17038673 -0.19819097 -0.08196944 -0.13503723 -0.39456815 -0.42838958 -0.119369 0.13550322 -0.14525436 0.013799345 -0.32897305 -0.22969922 0.44660842 -0.46188122 -0.36093086 -0.2199413 -0.3421077 -0.13446054 0.3278223 0.07986664 0.04927341 0.09968563 0.16481149 0.29907742 0.20668209 -0.38770175 0.07579855 0.17093617 0.22328201 -0.14989778 0.07565794 -0.060135253 0.115197495 0.27262953 -0.27420154 0.22939387 0.1967133 -0.054835163 -0.01203452 -0.18860368 -0.3402864 0.17680885 0.29132044 0.09172456 0.6037302 -0.0046329796 0.007523012 -0.22397959 -0.091538064 -0.07561347 0.11016306 -0.64063704 -0.23109412 0.21409899 -0.15006612 0.06095906 0.14541389 0.29074436 0.15963066 -0.061401393 0.053574685 0.5354661 -0.26075995
85 0.20204298 0.15459841 -0.17505132 0.07412593 0.21360113 0.12700546 -0.09046368 0.19040325 0.4902188 -0.059998948 0.22874263 -0.11994987 0.2833058 -0.036508527 0.07660857 -0.48037532 0.106936075 0.07753363 0.22077589 -0.42872727 -0.4350415 0.50198483 0.13103381 0.00086979056 -0.442768 0.16899437 -0.08772553 0.18442966 -0.15750113 0.0061560003 -0.13001668 -0.010121316 0.19396967 -0.24247634 0.08513514 0.44298965 0.049575143 -0.079235405 -0.1324823 -0.16831538 -0.120177284 0.08485081 -0.0870095 0.020890163 -0.2620243 0.0027480642 0.16793545 0.07923143 -0.3140894 0.038721442 -0.28184208 -0.18153721 -0.5292585 -0.47770515 -0.2608376 0.21223593 -0.045745954 -0.14462186 0.1899394 0.21316063 0.22210485 -0.10958831 -0.45246273 -0.6498462 0.01629432 -0.010499715 -0.13749976 0.05201345 -0.23993841 0.059876654 0.38813382 -0.051071554 0.032843735 -0.13982582 -0.33180255 0.06407138 -0.08251011 -0.36940688 -0.12022074 0.21624151 -0.14644091 0.26537743 0.015401631 0.18343294 -0.17244166 0.13732989 0.26365378 0.007297431 -0.17750297 0.061796203 -0.2240939 -0.28390017 0.43027744 0.15768999 0.12021389 -0.29366395 -0.2333693 -0.104109965 0.2419698 0.15374455
78 0.045469332 -0.14331208 -0.0792714 0.21135564 -0.117493205 -0.028579231 -0.026101707 -0.25659493 0.36416623 0.4563595 0.22051707 -0.051401217 0.18197492 0.21303315 0.000735502 0.009229177 0.066229925 -0.20896654 0.0946685 0.05018249 -0.08127526 0.2705516 0.27108634 -0.13703626 -0.4461337 0.026978604 0.0088482285 -0.1941969 0.11446597 0.124816865 -0.29193804 -0.24738333 -0.24269941 -0.111605756 0.43994308 0.061603762 -0.08631212 -0.13679081 -0.13168481 -0.00021329205 -0.13751987 -0.008979831 0.17509186 -0.010906199 0.1172755 -0.13759968 -0.007807241 -0.14752302 -0.00869825 0.32411855 -0.17667799 -0.4576616 -0.0730107 -0.18511593 -0.44511265 -0.032822575 0.014407593 -0.12838654 0.01586914 0.01821991 -0.13635683 -0.07925882 -0.09976609 -0.18743591 0.22053604 0.12014769 -0.28692377 0.036909435 0.13701172 0.014342958 0.07178061 -0.1676905 0.19401264 -0.28066608 -0.28403068 -0.31864044 0.20000094 -0.14899015 0.27786842 0.17729326 -0.0018786842 0.074998856 0.007545334 -0.20248638 0.03932126 -0.00190886 -0.26515988 -0.122818924 -0.089477725 -0.14780721 -0.07738825 0.087289095 -0.18998289 -0.022172341 -0.18712439 -0.26630837 0.070424296 -0.053663366 0.31041077 0.09271113
84 0.04753202 0.21337493 0.42263654 0.08020213 0.22884282 0.3776493 0.24150316 0.20979755 0.2549569 -0.00045424936 -0.102059804 0.014062302 0.051099647 0.070317365 0.19297084 0.3422499 0.28142372 0.2243287 -0.0921687 -0.23835455 0.05051285 0.08561717 -0.09417302 -0.31241864 -0.08727542 0.15695682 0.023302691 0.042446613 -0.019708117 0.024169998 -0.19045503 -0.12330303 -0.40999287 0.06262391 0.10700377 -0.0028138608 -0.36274838 0.24879967 -0.0042487844 -0.031639494 -0.1276691 0.10994232 -0.10569371 -0.18314539 0.04070854 -0.13913368 -0.088076055 0.16424602 -0.6399059 -0.16802411 -0.027064929 -0.5263996 -0.02241388 -0.07995184 -0.48806143 -0.3524163 -0.17400928 -0.27351767 -0.20163228 0.38166285 0.07924341 0.06280574 -0.10539178 -0.49153602 0.029466083 0.27332762 -0.411935 -0.06620231 0.22116043 -0.21963325 0.17065027 -0.10445199 0.42517462 -0.21447054 0.08130068 0.47136888 0.2732143 -0.38377553 0.29937097 0.12798454 0.26842487 0.21436317 -0.014105243 0.21921273 0.17303629 0.095902346 -0.04262431 -0.008878914 -0.13564053 -0.026996871 -0.48387492 -0.18089573 0.12389171 0.22989278 0.01380091 0.16419265 -0.35791746 -0.4837269 -0.224598 -0.056207195
79 -0.073325396 -0.20385762 0.02465952 0.04039912 -0.080663905 -0.06192325 0.17822759 -0.31538147 0.14546798 0.38354498 0.25347435 -0.056359805 0.0051989187 0.36324248 0.06724097 -0.029015768 0.015855474 0.040944293 0.06046964 0.057264198 -0.28689814 0.5215284 -0.016371684 -0.11825157 -0.31280583 -0.13979764 0.4256371 -0.022409579 0.3467652 0.08913645 -0.42062336 -0.19188166 0.15258026 -0.025900662 0.36751834 0.25566375 0.05824206 -0.03784503 -0.38641575 -0.3049939 -0.06643536 0.33246374 0.4134363 -0.2731266 -0.059964113 -0.3880323 0.27807122 -0.17730823 -0.2886718 0.36957845 0.09632829 -0.30947334 -0.59085006 -0.083874285 0.020446803 0.20584501 -0.071842976 0.002600944 0.21328014 0.09737694 -0.120023854 -0.1402879 -0.4595788 -0.025299849 0.16499613 0.073309965 -0.19590978 -0.19327295 -0.0008601421 0.06916669 0.56820244 -0.06985352 -0.05340158 -0.33270973 0.10260841 -0.1864192 -0.101023555 -0.14386572 0.2662345 0.18752477 0.41866446 -0.053879533 0.05097054 0.061607473 0.07139118 0.25003648 -0.21398486 -0.20403272 -0.27336296 -0.035711426 -0.2926458 0.0688415 -0.048712634 -0.2062115 0.16377074 -0.1108794 0.12331995 -0.23783739 0.5917574 0.036468737
82 0.14596562 -0.089242935 0.08614719 0.033882696 0.008118919 -0.44565326 0.12973626 -0.20858735 0.089701764 0.28734377 -0.036963295 -0.0011655146 0.26828542 0.38379285 0.0944614 0.0953088 0.00581093 -0.033932883 0.04455018 -0.096549034 0.08792755 0.1386663 -0.24965858 -0.12754704 -0.38728023 0.013996441 -0.06332001 0.26156998 -0.21538849 0.1612093 -0.46141317 -0.022418888 0.20276345 -0.1012146 0.12586516 -0.24745654 0.069773406 0.04406995 -0.06619849 0.09688404 0.00979678 0.04737258 -0.15242797 -0.09086237 -0.04721065 -0.032358136 0.20714653 0.027497726 -0.18861604 -0.21202002 0.38810325 -0.49231043 -0.35802746 0.23246165 -0.2627747 0.25980422 -0.21257858 -0.069253325 -0.10986565 -0.1458107 -0.16228612 0.1617468 -0.24095498 0.005556175 0.2131604 0.12749584 -0.1544374 -0.25701928 0.21467406 -0.1792979 0.021127567 0.1280098 -0.11351393 0.061836656 -0.104356885 -0.035734143 -0.13322204 -0.037191346 0.18535747 0.04828167 0.13118105 -0.12339013 0.023357235 -0.29106587 0.13451864 0.23368262 -0.15883726 -0.27900952 -0.45687792 -0.03582851 -0.1813409 -0.049390037 0.09400014 0.21353486 -0.061169326 -0.4775862 -0.19070034 -0.54538834 -0.06971328 0.2058453
102 0.49671188 0.0413617 0.35285744 -0.15109739 -0.071285866 0.24221553 0.4812852 0.26248538 -0.011951412 -0.05192934 -0.020280665 -0.3424844 0.12650688 0.117835626 0.33389148 0.026315354 -0.057791546 0.25597152 -0.25983283 0.36616778 0.08417239 0.3172578 0.19564423 -0.011536071 -0.08340501 -0.09852189 -0.1246372 0.19079304 -0.061408293 -0.11755173 -0.198399 0.06534551 -0.28560466 -0.010490522 0.05560085 -0.5746219 -0.1734965 0.4251113 0.19638437 0.12254308 -0.13942999 0.23092797 0.08358391 0.18195392 0.36720407 -0.04905822 0.23999186 0.08896228 -0.18243481 -0.097499706 -0.046644613 -0.5463432 -0.061840452 -0.47478816 -0.36994678 0.11036741 -0.14554454 -0.46508014 -0.14701939 0.4563157 0.10418179 0.022892201 -0.1373751 0.06666024 0.2986833 0.28924567 -0.19003564 0.05015601 0.26942143 0.0016199265 0.2861975 -0.15287457 -0.06864158 -0.17329334 0.0028622262 0.72529477 0.0020117057 -0.28242832 0.022136446 -0.075993694 0.4868583 0.09561441 -0.06513766 -0.33623895 0.16129483 0.062554836 0.04239349 0.1190794 -0.39898747 -0.58370465 0.10143307 -0.12945901 0.22238065 0.38364115 -0.25146192 -0.11567551 -0.12592095 -0.35856086 -0.45565078 -0.10277625
86 0.1653462 -0.21758674 -0.3003792 -0.03269086 0.14112008 -0.20960434 -0.078842714 -0.20974986 0.28982568 0.2299955 -0.04065204 0.30548546 0.037154857 -0.05740604 0.32567963 0.15756196 0.25055084 0.08838498 0.24244457 0.07896004 -0.111259334 0.4427559 0.040877607 0.026691603 -0.2972091 -0.39264825 -0.06473725 0.18409322 -0.26481226 -0.05557682 0.15625133 -0.6977017 -0.09139136 -0.03933222 0.24218072 -0.15541665 -0.1922451 0.0683892 0.2043583 0.03438168 -0.070125826 0.2540395 0.009263549 0.15445444 0.5700083 0.09265933 -0.09250245 -0.036260154 -0.19469483 0.048431024 -0.001344674 -0.29600683 -0.54701126 -0.20868595 0.08008149 0.1570333 0.1026478 -0.10885168 -0.13120762 -0.30125195 -0.07006718 -0.09327372 -0.3340762 -0.022525907 0.13794081 0.11859821 0.031070856 -0.16797936 0.23052703 -0.029684031 0.24830191 0.5210635 0.18587738 -0.1916054 -0.16687602 -0.15701556 -0.10463981 -0.49236813 0.5134022 -0.13026795 -0.0945746 -0.10847465 -0.10225016 -0.10485352 0.034734435 0.24865827 -0.16157974 -0.04988073 -0.14252935 -0.171349 -0.016820103 -0.26188594 -0.081421934 -0.18199946 0.009467363 -0.09531764 -0.095471956 -0.4844278 0.01743076 -0.19644393
94 0.3522964 0.21469432 0.102741994 0.025327748 0.43665966 -0.16625623 0.49258593 0.16869994 0.4086526 -0.08004966 0.053110145 -0.009374797 0.20737562 0.2504946 -0.39411873 0.026399659 -0.10873197 -0.102889165 0.0102774175 -0.05027523 0.19449228 -0.19055179 0.07006681 0.013798493 -0.37860888 0.05150628 0.06624014 0.12822723 -0.2958039 -0.15398614 -0.0040242206 -0.28801468 -0.017095866 -0.015940858 0.22408868 0.031223916 -0.028145194 0.021909831 0.17202447 -0.2280832 -0.06013254 0.12944439 -0.15991764 0.08858578 0.0035875821 -0.1091523 -0.049554154 -0.14353822 -0.0261591 0.32911843 0.19096456 -0.45670325 0.11497485 -0.35498703 -0.174497 0.18228817 -0.20134708 0.19996081 -0.09395161 -0.10228637 -0.1385401 0.26079166 -0.4060539 0.18549478 0.07666589 0.03019252 0.1893588 -0.052044153 -0.1557689 -0.31842494 -0.31976095 -0.1882635 0.2733193 0.044314917 0.19700746 -0.016436536 -0.039407898 -0.20553118 -0.022929536 -0.12692104 -0.07236407 -0.19149934 -0.35107663 -0.037300307 0.021737583 -0.45000622 0.010247135 -0.35141885 -0.1510908 0.08786783 -0.14622237 -0.26878622 0.038527906 -0.08561576 0.07797426 -0.28297168 -0.111972004 0.14660184 -0.007029006 -0.34395507
91 -0.15661256 -0.1046365 0.0073493356 0.27462304 -0.11036757 0.13743947 -0.094056815 -0.2465541 0.33287555 0.44662964 0.26641774 0.047506258 0.07689745 0.1586632 0.051417083 -0.1216905 0.17093585 0.113597035 0.023205902 -0.063683316 -0.21436837 0.3180756 0.1470517 -0.17973125 -0.21620668 -0.2584458 0.14019272 0.02945089 0.3015812 0.0056584217 -0.2608413 -0.33180466 -0.118973896 0.1453664 0.26765215 0.20863894 0.06283018 0.010791621 -0.032071162 -0.21425891 -0.18472277 0.16100137 0.08849125 -0.059649616 -0.06933608 -0.19232216 0.101233386 -0.36498055 0.0097574005 0.307819 -0.13835558 -0.4317445 -0.23025191 -0.31032956 -0.27030215 -0.031279366 0.01318053 -0.14759755 0.005929246 0.07663661 -0.11601222 -0.07132237 -0.21924728 -0.30396175 0.22966693 0.16058643 -0.29530948 0.018622769 0.19542913 0.10046554 0.16576634 0.01947816 0.07879262 -0.22931266 -0.20800479 -0.15848103 0.20279536 -0.1689752 0.5527014 -0.0781611 0.17026399 0.21231596 0.017418673 -0.07971671 0.17351414 0.15292597 -0.2803749 0.018696804 -0.058654413 0.020101419 -0.02087166 0.032763794 0.25433803 -0.11270229 -0.23615669 -0.26133606 0.13706735 -0.14615935 0.2443215 0.08503564
81 0.06529376 -0.1548771 0.15369387 -0.11767621 -0.05748975 -0.18665677 0.055388983 0.030980505 0.23126468 0.023518817 -0.094622694 0.15658265 0.25989506 0.14388752 -0.10382672 -0.0809417 -0.14697884 -0.0067336815 0.05042651 -0.1839662 0.388538 -0.30290747 -0.116558164 -0.016639901 0.015534969 0.34608227 0.43837535 -0.0681228 -0.102193095 0.10469936 0.08113044 -0.037527937 0.13317977 0.033115275 0.29931313 -0.14760235 0.086788245 -0.20043917 0.15242879 -0.13154234 -0.14578645 -0.10621487 -0.08767778 -0.06381352 0.12845217 -0.056246553 0.027714195 -0.07360007 0.08928234 -0.043735687 0.028903225 -0.31206766 -0.101565704 -0.18096304 -0.49039072 0.1837437 -0.13683666 -0.33187398 0.031895265 -0.069523565 -0.065058164 0.35789073 -0.24431181 0.24474838 0.2713445 0.2525134 -0.006399442 0.06833155 0.14293626 -0.22808056 -0.17888606 -0.12058583 0.11040823 -0.046597596 -0.10153793 -0.14300033 0.09410774 -0.09857605 -0.11067021 -0.037773505 0.022654 -0.13421734 -0.25925204 -0.09960848 0.032418825 -0.24838217 0.22728512 -0.29805073 -0.4064924 -0.022739308 -0.028279614 -0.33436954 0.27251956 -0.09142815 0.09341961 -0.25340563 -0.50772053 -0.30118042 0.1629157 0.27653635
69 0.29137835 0.088409916 0.31462333 0.11827052 -0.16363488 -0.0010816886 0.031800564 -0.33496207 0.39920104 0.16568358 0.2728648 0.18419857 0.27508897 0.27987656 0.23575735 -0.036189176 0.22883242 -0.145181 0.072048694 -0.0055283033 -0.30374122 -0.09143657 -0.12803169 0.2242394 0.42329165 -0.08317111 0.1790538 0.6274476 -0.23241886 -0.20940453 0.21874069 -0.19461629 0.12214058 0.038537737 0.14542203 -0.045626517 -0.07803621 -0.30440813 0.10028089 -0.26890904 -0.13632809 0.1747002 0.21336597 -0.11846764 0.11116354 -0.2750018 0.22194244 -0.14666574 -0.10998214 -0.05299665 0.036239915 -0.5417604 0.13659735 -0.5113878 0.13146748 0.06782707 -0.061624836 0.11194626 0.1336164 0.41983363 0.2064627 0.14636612 -0.40364984 -0.49049476 0.3000651 0.22761345 -0.28952986 0.14879988 0.036741164 0.07825366 -0.12806273 -0.03345606 0.50247264 -0.23741354 -0.0111021185 -0.09826818 -0.14756374 -0.08349182 0.034074843 0.39695916 -0.3219818 0.029181167 0.03255956 0.14289579 -0.43380648 -0.5379118 -0.3270073 -0.104352355 -0.06083724 -0.15591694 -0.30226627 -0.1136267 -0.05513665 -0.029955968 0.11818255 -0.34142637 -0.037815906 -0.39019164 -0.12186539 -0.2583442
